{"learner":{"attributes":{"scikit_learn":"{\"_estimator_type\": \"regressor\"}"},"feature_names":[],"feature_types":[],"gradient_booster":{"model":{"cats":{"enc":[],"feature_segments":[],"sorted_idx":[]},"gbtree_model_param":{"num_parallel_tree":"1","num_trees":"600"},"iteration_indptr":[0,1,2,3,4,5,6,7,8,9,10,11,12,13,14,15,16,17,18,19,20,21,22,23,24,25,26,27,28,29,30,31,32,33,34,35,36,37,38,39,40,41,42,43,44,45,46,47,48,49,50,51,52,53,54,55,56,57,58,59,60,61,62,63,64,65,66,67,68,69,70,71,72,73,74,75,76,77,78,79,80,81,82,83,84,85,86,87,88,89,90,91,92,93,94,95,96,97,98,99,100,101,102,103,104,105,106,107,108,109,110,111,112,113,114,115,116,117,118,119,120,121,122,123,124,125,126,127,128,129,130,131,132,133,134,135,136,137,138,139,140,141,142,143,144,145,146,147,148,149,150,151,152,153,154,155,156,157,158,159,160,161,162,163,164,165,166,167,168,169,170,171,172,173,174,175,176,177,178,179,180,181,182,183,184,185,186,187,188,189,190,191,192,193,194,195,196,197,198,199,200,201,202,203,204,205,206,207,208,209,210,211,212,213,214,215,216,217,218,219,220,221,222,223,224,225,226,227,228,229,230,231,232,233,234,235,236,237,238,239,240,241,242,243,244,245,246,247,248,249,250,251,252,253,254,255,256,257,258,259,260,261,262,263,264,265,266,267,268,269,270,271,272,273,274,275,276,277,278,279,280,281,282,283,284,285,286,287,288,289,290,291,292,293,294,295,296,297,298,299,300,301,302,303,304,305,306,307,308,309,310,311,312,313,314,315,316,317,318,319,320,321,322,323,324,325,326,327,328,329,330,331,332,333,334,335,336,337,338,339,340,341,342,343,344,345,346,347,348,349,350,351,352,353,354,355,356,357,358,359,360,361,362,363,364,365,366,367,368,369,370,371,372,373,374,375,376,377,378,379,380,381,382,383,384,385,386,387,388,389,390,391,392,393,394,395,396,397,398,399,400,401,402,403,404,405,406,407,408,409,410,411,412,413,414,415,416,417,418,419,420,421,422,423,424,425,426,427,428,429,430,431,432,433,434,435,436,437,438,439,440,441,442,443,444,445,446,447,448,449,450,451,452,453,454,455,456,457,458,459,460,461,462,463,464,465,466,467,468,469,470,471,472,473,474,475,476,477,478,479,480,481,482,483,484,485,486,487,488,489,490,491,492,493,494,495,496,497,498,499,500,501,502,503,504,505,506,507,508,509,510,511,512,513,514,515,516,517,518,519,520,521,522,523,524,525,526,527,528,529,530,531,532,533,534,535,536,537,538,539,540,541,542,543,544,545,546,547,548,549,550,551,552,553,554,555,556,557,558,559,560,561,562,563,564,565,566,567,568,569,570,571,572,573,574,575,576,577,578,579,580,581,582,583,584,585,586,587,588,589,590,591,592,593,594,595,596,597,598,599,600],"tree_info":[0,0,0,0,0,0,0,0,0,0,0,0,0,0,0,0,0,0,0,0,0,0,0,0,0,0,0,0,0,0,0,0,0,0,0,0,0,0,0,0,0,0,0,0,0,0,0,0,0,0,0,0,0,0,0,0,0,0,0,0,0,0,0,0,0,0,0,0,0,0,0,0,0,0,0,0,0,0,0,0,0,0,0,0,0,0,0,0,0,0,0,0,0,0,0,0,0,0,0,0,0,0,0,0,0,0,0,0,0,0,0,0,0,0,0,0,0,0,0,0,0,0,0,0,0,0,0,0,0,0,0,0,0,0,0,0,0,0,0,0,0,0,0,0,0,0,0,0,0,0,0,0,0,0,0,0,0,0,0,0,0,0,0,0,0,0,0,0,0,0,0,0,0,0,0,0,0,0,0,0,0,0,0,0,0,0,0,0,0,0,0,0,0,0,0,0,0,0,0,0,0,0,0,0,0,0,0,0,0,0,0,0,0,0,0,0,0,0,0,0,0,0,0,0,0,0,0,0,0,0,0,0,0,0,0,0,0,0,0,0,0,0,0,0,0,0,0,0,0,0,0,0,0,0,0,0,0,0,0,0,0,0,0,0,0,0,0,0,0,0,0,0,0,0,0,0,0,0,0,0,0,0,0,0,0,0,0,0,0,0,0,0,0,0,0,0,0,0,0,0,0,0,0,0,0,0,0,0,0,0,0,0,0,0,0,0,0,0,0,0,0,0,0,0,0,0,0,0,0,0,0,0,0,0,0,0,0,0,0,0,0,0,0,0,0,0,0,0,0,0,0,0,0,0,0,0,0,0,0,0,0,0,0,0,0,0,0,0,0,0,0,0,0,0,0,0,0,0,0,0,0,0,0,0,0,0,0,0,0,0,0,0,0,0,0,0,0,0,0,0,0,0,0,0,0,0,0,0,0,0,0,0,0,0,0,0,0,0,0,0,0,0,0,0,0,0,0,0,0,0,0,0,0,0,0,0,0,0,0,0,0,0,0,0,0,0,0,0,0,0,0,0,0,0,0,0,0,0,0,0,0,0,0,0,0,0,0,0,0,0,0,0,0,0,0,0,0,0,0,0,0,0,0,0,0,0,0,0,0,0,0,0,0,0,0,0,0,0,0,0,0,0,0,0,0,0,0,0,0,0,0,0,0,0,0,0,0,0,0,0,0,0,0,0,0,0,0,0,0,0,0,0,0,0,0,0,0,0,0,0,0,0,0,0,0,0,0,0,0,0,0,0,0,0,0,0,0,0,0,0,0,0,0,0,0,0,0,0,0,0,0,0,0,0,0,0,0,0,0,0,0,0,0,0,0,0,0,0,0,0,0,0,0,0,0,0,0,0,0,0],"trees":[{"base_weights":[-6.332544E-2,-2.9049253E1,2.814016E1,-4.3898113E1,-1.5369054E1,1.4058171E1,4.3322037E1,-5.0031364E1,-3.6068752E1,-2.229067E1,-8.20626E0,5.889783E0,2.0354206E1,3.3950798E1,5.5183174E1,-5.109617E1,-3.378652E1,-3.7171165E1,-2.143804E1,-2.889281E1,-1.9746058E1,-1.1408261E1,1.3325721E0,-4.4661748E-1,1.230662E1,1.3890772E1,2.9774881E1,2.3275276E1,3.8636436E1,4.5539986E1,6.0832E1,-5.5172295E1,-4.790911E1,-1.9925005E0,-2.914969E1,-4.2798298E1,-3.4341114E1,-2.7070688E1,-1.5699934E1,-2.9939634E1,-1.532814E1,-2.311237E1,-1.5877211E1,-1.7949976E1,-8.996191E0,1.2945554E-1,1.5418029E1,-1.4541646E0,1.892801E1,1.1225881E1,2.858754E1,4.071422E0,1.683496E1,2.691811E1,3.810225E1,1.7019611E1,2.843346E1,3.319316E1,4.6159534E1,4.1451855E1,5.229992E1,5.671487E1,3.6222432E0,-2.9958494E0,-2.6248162E0,-2.5351245E0,-2.1451252E0,-1.6085987E0,-1.1437303E0,-2.2362652E0,-1.8830473E0,-1.8783385E0,-1.576782E0,-1.4919748E0,-1.0436603E0,-9.4531673E-1,-3.2959405E-1,-1.6010545E0,-1.2150611E0,-8.852684E-1,-4.6936193E-1,-1.2067626E0,-4.373816E-1,-9.889164E-1,-6.262898E-1,-1.202847E0,-7.801223E-1,-8.2807064E-1,-3.5466418E-1,-2.5606957E-1,1.7711793E-1,4.2506203E-1,9.3914205E-1,-3.3299905E-1,7.62021E-2,6.8710095E-1,1.109628E0,3.560193E-1,7.286593E-1,9.4503987E-1,1.5636299E0,-2.6021177E-2,3.6657324E-1,5.8291817E-1,1.0032271E0,1.162795E0,1.5658177E0,1.5255054E0,2.0830514E0,4.332087E-1,1.0185046E0,1.0253047E0,1.6002682E0,1.2880142E0,1.763812E0,2.1352513E0,2.5007904E0,1.4377207E0,2.1256473E0,2.2792337E0,2.7949283E0,2.5994089E0,3.0729206E0],"categories":[],"categories_nodes":[],"categories_segments":[],"categories_sizes":[],"default_left":[0,0,0,0,0,0,0,0,0,0,0,0,0,0,0,0,0,0,0,0,0,0,0,0,0,0,0,0,0,0,0,0,0,0,0,0,0,0,0,0,0,0,0,0,0,0,0,0,0,0,0,0,0,0,0,0,0,0,0,0,0,0,0,0,0,0,0,0,0,0,0,0,0,0,0,0,0,0,0,0,0,0,0,0,0,0,0,0,0,0,0,0,0,0,0,0,0,0,0,0,0,0,0,0,0,0,0,0,0,0,0,0,0,0,0,0,0,0,0,0,0,0,0],"id":0,"left_children":[1,3,5,7,9,11,13,15,17,19,21,23,25,27,29,31,33,35,37,39,41,43,45,47,49,51,53,55,57,59,61,63,65,-1,67,69,71,73,75,77,79,81,83,85,87,89,91,93,95,97,99,101,103,105,107,109,111,113,115,117,119,121,-1,-1,-1,-1,-1,-1,-1,-1,-1,-1,-1,-1,-1,-1,-1,-1,-1,-1,-1,-1,-1,-1,-1,-1,-1,-1,-1,-1,-1,-1,-1,-1,-1,-1,-1,-1,-1,-1,-1,-1,-1,-1,-1,-1,-1,-1,-1,-1,-1,-1,-1,-1,-1,-1,-1,-1,-1,-1,-1,-1,-1],"loss_changes":[9.14215E6,1.119611E6,1.2111525E6,1.2515E5,1.4220231E5,1.5118006E5,3.01234E5,2.386575E4,1.7987625E4,2.3952438E4,4.3173977E4,5.213235E4,1.0072019E5,7.5427625E4,6.269525E4,1.536475E4,1.4743359E3,1.5753375E4,2.2856562E3,5.2733125E3,1.339525E4,1.6530078E4,6.029384E3,1.2636246E4,1.0883383E4,2.8463578E4,1.50256875E4,1.4612891E4,4.182625E4,1.0203375E4,3.197625E4,4.48675E3,8.807875E3,0E0,3.3958203E2,1.8515E3,5.3693125E3,7.562695E1,1.1577998E3,3.6055312E3,2.688955E2,8.0579375E3,6.220789E3,3.6921953E3,1.1036992E4,5.9138716E3,4.892578E2,9.545621E3,2.3319336E2,8.1257266E3,4.1827344E2,3.4325378E3,1.2452047E4,7.4165625E3,3.3148906E3,5.8114766E3,6.5589844E3,8.653875E3,3.742875E3,2.5968125E3,1.4290938E3,9.39425E3,0E0,0E0,0E0,0E0,0E0,0E0,0E0,0E0,0E0,0E0,0E0,0E0,0E0,0E0,0E0,0E0,0E0,0E0,0E0,0E0,0E0,0E0,0E0,0E0,0E0,0E0,0E0,0E0,0E0,0E0,0E0,0E0,0E0,0E0,0E0,0E0,0E0,0E0,0E0,0E0,0E0,0E0,0E0,0E0,0E0,0E0,0E0,0E0,0E0,0E0,0E0,0E0,0E0,0E0,0E0,0E0,0E0,0E0,0E0,0E0,0E0],"parents":[2147483647,0,0,1,1,2,2,3,3,4,4,5,5,6,6,7,7,8,8,9,9,10,10,11,11,12,12,13,13,14,14,15,15,16,16,17,17,18,18,19,19,20,20,21,21,22,22,23,23,24,24,25,25,26,26,27,27,28,28,29,29,30,30,31,31,32,32,34,34,35,35,36,36,37,37,38,38,39,39,40,40,41,41,42,42,43,43,44,44,45,45,46,46,47,47,48,48,49,49,50,50,51,51,52,52,53,53,54,54,55,55,56,56,57,57,58,58,59,59,60,60,61,61],"right_children":[2,4,6,8,10,12,14,16,18,20,22,24,26,28,30,32,34,36,38,40,42,44,46,48,50,52,54,56,58,60,62,64,66,-1,68,70,72,74,76,78,80,82,84,86,88,90,92,94,96,98,100,102,104,106,108,110,112,114,116,118,120,122,-1,-1,-1,-1,-1,-1,-1,-1,-1,-1,-1,-1,-1,-1,-1,-1,-1,-1,-1,-1,-1,-1,-1,-1,-1,-1,-1,-1,-1,-1,-1,-1,-1,-1,-1,-1,-1,-1,-1,-1,-1,-1,-1,-1,-1,-1,-1,-1,-1,-1,-1,-1,-1,-1,-1,-1,-1,-1,-1,-1,-1],"split_conditions":[6E1,3E1,9.1E1,1.7E1,4.5E1,7.4E1,5.9269577E1,1.4E1,1.1E1,9.251495E-1,6.23664E1,5.8133892E1,5.947943E1,5.1056362E1,1.02E2,1.1049253E0,8E0,9.8968333E-1,2.3E1,1E0,5.8133892E1,8.875191E-1,8E0,1.6E1,1.2E1,4.9710262E1,6.751996E1,1.04E2,1.08E2,6.537108E1,6.735087E1,7E0,1.1E1,-1.9925005E0,1.5341432E0,2.6E1,2.3E1,1.3208092E0,6.2817192E1,4.1E1,5.9464287E1,1.2E1,3.7E1,5.1182156E1,5.039444E1,5.2E1,9.949137E-1,5.1182156E1,6.6E1,1.1000651E0,9.356533E-1,4.6032288E1,1.0293887E0,8.3E1,8E1,4.6032288E1,4.6523876E1,8.621077E-1,5.546959E1,5.99984E-1,1.0344461E0,1.11E2,3.6222432E0,-2.9958494E0,-2.6248162E0,-2.5351245E0,-2.1451252E0,-1.6085987E0,-1.1437303E0,-2.2362652E0,-1.8830473E0,-1.8783385E0,-1.576782E0,-1.4919748E0,-1.0436603E0,-9.4531673E-1,-3.2959405E-1,-1.6010545E0,-1.2150611E0,-8.852684E-1,-4.6936193E-1,-1.2067626E0,-4.373816E-1,-9.889164E-1,-6.262898E-1,-1.202847E0,-7.801223E-1,-8.2807064E-1,-3.5466418E-1,-2.5606957E-1,1.7711793E-1,4.2506203E-1,9.3914205E-1,-3.3299905E-1,7.62021E-2,6.8710095E-1,1.109628E0,3.560193E-1,7.286593E-1,9.4503987E-1,1.5636299E0,-2.6021177E-2,3.6657324E-1,5.8291817E-1,1.0032271E0,1.162795E0,1.5658177E0,1.5255054E0,2.0830514E0,4.332087E-1,1.0185046E0,1.0253047E0,1.6002682E0,1.2880142E0,1.763812E0,2.1352513E0,2.5007904E0,1.4377207E0,2.1256473E0,2.2792337E0,2.7949283E0,2.5994089E0,3.0729206E0],"split_indices":[18,18,18,18,18,18,24,27,27,33,24,24,24,24,18,33,18,33,27,26,24,33,27,27,27,24,24,18,18,24,24,18,18,0,33,18,18,33,24,18,23,27,18,24,24,18,33,24,18,33,33,24,33,18,18,24,24,33,24,33,33,18,0,0,0,0,0,0,0,0,0,0,0,0,0,0,0,0,0,0,0,0,0,0,0,0,0,0,0,0,0,0,0,0,0,0,0,0,0,0,0,0,0,0,0,0,0,0,0,0,0,0,0,0,0,0,0,0,0,0,0,0,0],"split_type":[0,0,0,0,0,0,0,0,0,0,0,0,0,0,0,0,0,0,0,0,0,0,0,0,0,0,0,0,0,0,0,0,0,0,0,0,0,0,0,0,0,0,0,0,0,0,0,0,0,0,0,0,0,0,0,0,0,0,0,0,0,0,0,0,0,0,0,0,0,0,0,0,0,0,0,0,0,0,0,0,0,0,0,0,0,0,0,0,0,0,0,0,0,0,0,0,0,0,0,0,0,0,0,0,0,0,0,0,0,0,0,0,0,0,0,0,0,0,0,0,0,0,0],"sum_hessian":[1.1181E4,5.514E3,5.667E3,2.643E3,2.871E3,2.941E3,2.726E3,1.479E3,1.164E3,1.459E3,1.412E3,1.281E3,1.66E3,1.525E3,1.201E3,1.386E3,9.3E1,1.081E3,8.3E1,4.03E2,1.056E3,1.057E3,3.55E2,6.45E2,6.36E2,9.86E2,6.74E2,4.67E2,1.058E3,4.47E2,7.54E2,6.01E2,7.85E2,3.7E1,5.6E1,3.57E2,7.24E2,4E1,4.3E1,3.73E2,3E1,5.62E2,4.94E2,2.83E2,7.74E2,3.28E2,2.7E1,6.14E2,3.1E1,5.98E2,3.8E1,2.28E2,7.58E2,5.05E2,1.69E2,2.13E2,2.54E2,6.17E2,4.41E2,2.83E2,1.64E2,5.61E2,1.93E2,2.09E2,3.92E2,4.98E2,2.87E2,3.5E1,2.1E1,2.54E2,1.03E2,3.31E2,3.93E2,2.5E1,1.5E1,3.1E1,1.2E1,2.69E2,1.04E2,2E1,1E1,5.24E2,3.8E1,2.26E2,2.68E2,7.6E1,2.07E2,1.54E2,6.2E2,1.29E2,1.99E2,1E1,1.7E1,2.23E2,3.91E2,1.4E1,1.7E1,2.7E2,3.28E2,1E1,2.8E1,9.5E1,1.33E2,2.93E2,4.65E2,2.79E2,2.26E2,5.7E1,1.12E2,6.2E1,1.51E2,8.1E1,1.73E2,1.38E2,4.79E2,2.39E2,2.02E2,2.4E1,2.59E2,6.2E1,1.02E2,2.87E2,2.74E2],"tree_param":{"num_deleted":"0","num_feature":"34","num_nodes":"123","size_leaf_vector":"1"}},{"base_weights":[3.1734277E-2,-2.8080309E1,2.6360743E1,-4.171489E1,-1.5000608E1,1.2220709E1,4.0322166E1,-4.8027157E1,-3.4663067E1,-2.1078373E1,-8.207204E0,5.2026515E0,1.8865564E1,3.0709637E1,5.083036E1,-4.9045864E1,-3.2269123E1,-3.9675076E1,-3.166132E1,-2.6928717E1,-1.8546345E1,-1.1811659E1,-7.8617847E-1,-3.129246E0,9.617173E0,1.0931662E1,2.581009E1,2.1508333E1,3.528906E1,4.1729073E1,5.710166E1,-5.2315887E1,-4.512708E1,-1.9239329E0,-1.3269762E0,-4.0638912E1,-2.8028257E1,-3.2785088E1,-1.83471E1,-2.7998234E1,-1.4874935E1,-2.1897528E1,-1.4983607E1,-1.9009167E1,-9.823995E0,-5.192543E0,2.789933E0,-7.0559907E0,8.4228355E-1,6.728744E0,1.5400054E1,1.5327696E0,1.3502989E1,2.221543E1,3.2955395E1,1.655426E1,2.7326462E1,2.7983788E1,4.1073338E1,3.860391E1,5.1369526E1,5.3368225E1,6.7659294E1,-2.8089492E0,-2.4908721E0,-2.3756444E0,-2.0154927E0,-2.1251903E0,-1.7733128E0,-1.5486205E0,-1.0927008E0,-1.8012692E0,-1.4827622E0,-1.1587689E0,-6.0496026E-1,-1.5630621E0,-1.1911411E0,-9.186778E-1,-4.4548675E-1,-1.1499594E0,-4.1511327E-1,-9.2398065E-1,-6.0510296E-1,-1.1261165E0,-7.878208E-1,-8.332602E-1,-4.1531596E-1,-3.255019E-1,5.4345334E-1,4.6452135E-2,4.6330386E-1,-7.4666613E-1,-2.943453E-1,-1.4271631E-2,8.4329236E-1,2.8468257E-1,1.1133054E0,5.6875765E-1,1.0030861E0,-2.655336E-1,1.9514805E-1,3.9891732E-1,8.028698E-1,9.0941554E-1,1.2885576E0,1.343821E0,1.7911681E0,3.9142495E-1,9.69854E-1,1.0895888E0,1.6177931E0,1.0746357E0,1.5500206E0,1.7944058E0,2.2309792E0,1.7350569E0,2.1173522E0,2.1732738E0,2.7506568E0,2.4283426E0,2.8827097E0,3.188159E0,3.7625656E0],"categories":[],"categories_nodes":[],"categories_segments":[],"categories_sizes":[],"default_left":[0,0,0,0,0,0,0,0,0,0,0,0,0,0,0,0,0,0,0,0,0,0,0,0,0,0,0,0,0,0,0,0,0,0,0,0,0,0,0,0,0,0,0,0,0,0,0,0,0,0,0,0,0,0,0,0,0,0,0,0,0,0,0,0,0,0,0,0,0,0,0,0,0,0,0,0,0,0,0,0,0,0,0,0,0,0,0,0,0,0,0,0,0,0,0,0,0,0,0,0,0,0,0,0,0,0,0,0,0,0,0,0,0,0,0,0,0,0,0,0,0,0,0],"id":1,"left_children":[1,3,5,7,9,11,13,15,17,19,21,23,25,27,29,31,33,35,37,39,41,43,45,47,49,51,53,55,57,59,61,63,65,-1,-1,67,69,71,73,75,77,79,81,83,85,87,89,91,93,95,97,99,101,103,105,107,109,111,113,115,117,119,121,-1,-1,-1,-1,-1,-1,-1,-1,-1,-1,-1,-1,-1,-1,-1,-1,-1,-1,-1,-1,-1,-1,-1,-1,-1,-1,-1,-1,-1,-1,-1,-1,-1,-1,-1,-1,-1,-1,-1,-1,-1,-1,-1,-1,-1,-1,-1,-1,-1,-1,-1,-1,-1,-1,-1,-1,-1,-1,-1,-1],"loss_changes":[8.316462E6,9.68448E5,1.144904E6,1.167315E5,1.1440025E5,1.3439181E5,2.932805E5,2.0899E4,1.7693125E4,2.1182562E4,3.508382E4,5.167175E4,8.1313125E4,6.3577875E4,7.711525E4,1.446775E4,2.1031719E3,4.1076875E3,1.125825E4,5.251625E3,1.1906094E4,1.2442758E4,6.790517E3,7.601419E3,1.5227922E4,1.6725969E4,1.9527812E4,1.4243203E4,4.1860125E4,1.52411875E4,2.877725E4,4.043375E3,5.02925E3,0E0,0E0,2.6326875E3,2.6785156E1,6.3285E3,1.6467285E3,4.7404062E3,6.266279E2,7.6840312E3,4.810242E3,1.8125156E3,7.064703E3,4.1544126E3,2.858604E3,2.1662773E3,4.3974893E3,9.745154E3,5.491297E3,2.4536262E3,7.546508E3,7.087453E3,3.5986875E3,6.7414297E3,5.7753125E3,8.198719E3,8.79825E3,4.892125E3,1.5445E3,9.783375E3,1.429125E3,0E0,0E0,0E0,0E0,0E0,0E0,0E0,0E0,0E0,0E0,0E0,0E0,0E0,0E0,0E0,0E0,0E0,0E0,0E0,0E0,0E0,0E0,0E0,0E0,0E0,0E0,0E0,0E0,0E0,0E0,0E0,0E0,0E0,0E0,0E0,0E0,0E0,0E0,0E0,0E0,0E0,0E0,0E0,0E0,0E0,0E0,0E0,0E0,0E0,0E0,0E0,0E0,0E0,0E0,0E0,0E0,0E0,0E0,0E0,0E0],"parents":[2147483647,0,0,1,1,2,2,3,3,4,4,5,5,6,6,7,7,8,8,9,9,10,10,11,11,12,12,13,13,14,14,15,15,16,16,17,17,18,18,19,19,20,20,21,21,22,22,23,23,24,24,25,25,26,26,27,27,28,28,29,29,30,30,31,31,32,32,35,35,36,36,37,37,38,38,39,39,40,40,41,41,42,42,43,43,44,44,45,45,46,46,47,47,48,48,49,49,50,50,51,51,52,52,53,53,54,54,55,55,56,56,57,57,58,58,59,59,60,60,61,61,62,62],"right_children":[2,4,6,8,10,12,14,16,18,20,22,24,26,28,30,32,34,36,38,40,42,44,46,48,50,52,54,56,58,60,62,64,66,-1,-1,68,70,72,74,76,78,80,82,84,86,88,90,92,94,96,98,100,102,104,106,108,110,112,114,116,118,120,122,-1,-1,-1,-1,-1,-1,-1,-1,-1,-1,-1,-1,-1,-1,-1,-1,-1,-1,-1,-1,-1,-1,-1,-1,-1,-1,-1,-1,-1,-1,-1,-1,-1,-1,-1,-1,-1,-1,-1,-1,-1,-1,-1,-1,-1,-1,-1,-1,-1,-1,-1,-1,-1,-1,-1,-1,-1,-1,-1,-1],"split_conditions":[5.9E1,3E1,8.9E1,1.6E1,4.5E1,7.4E1,5.8597443E1,1.4E1,1.0492743E0,9.474589E-1,6.0842922E1,5.525131E1,5.7457504E1,5.1056362E1,1.02E2,1.2461575E0,8E0,1E1,6E0,1E0,5.7991047E1,8.0497533E-1,5.2E1,1.1841967E0,6.3647907E1,4.831909E1,6.5163376E1,1.05E2,1.03E2,6.7042595E1,6.672758E1,7E0,1.1E1,-1.9239329E0,-1.3269762E0,2.6E1,2.4E1,2.3E1,2.3E1,5.9117508E1,5.7536453E1,1.2E1,3.7E1,5.376788E1,4.9710262E1,8E0,6.8821945E1,4.6032288E1,1E1,1.7E1,6.7E1,4.3136322E1,9.310966E-1,1.1744581E0,7.9E1,4.5760925E1,4.794865E1,9.8968333E-1,1.1095043E0,1.2167457E0,1.0344461E0,1.157971E0,7.093501E1,-2.8089492E0,-2.4908721E0,-2.3756444E0,-2.0154927E0,-2.1251903E0,-1.7733128E0,-1.5486205E0,-1.0927008E0,-1.8012692E0,-1.4827622E0,-1.1587689E0,-6.0496026E-1,-1.5630621E0,-1.1911411E0,-9.186778E-1,-4.4548675E-1,-1.1499594E0,-4.1511327E-1,-9.2398065E-1,-6.0510296E-1,-1.1261165E0,-7.878208E-1,-8.332602E-1,-4.1531596E-1,-3.255019E-1,5.4345334E-1,4.6452135E-2,4.6330386E-1,-7.4666613E-1,-2.943453E-1,-1.4271631E-2,8.4329236E-1,2.8468257E-1,1.1133054E0,5.6875765E-1,1.0030861E0,-2.655336E-1,1.9514805E-1,3.9891732E-1,8.028698E-1,9.0941554E-1,1.2885576E0,1.343821E0,1.7911681E0,3.9142495E-1,9.69854E-1,1.0895888E0,1.6177931E0,1.0746357E0,1.5500206E0,1.7944058E0,2.2309792E0,1.7350569E0,2.1173522E0,2.1732738E0,2.7506568E0,2.4283426E0,2.8827097E0,3.188159E0,3.7625656E0],"split_indices":[18,18,18,18,18,18,24,27,33,33,24,24,24,24,18,33,18,27,27,26,24,33,18,33,24,24,24,18,18,24,24,18,18,0,0,18,27,18,27,24,24,27,18,24,24,27,24,24,27,27,18,24,33,33,18,24,24,33,33,33,33,33,24,0,0,0,0,0,0,0,0,0,0,0,0,0,0,0,0,0,0,0,0,0,0,0,0,0,0,0,0,0,0,0,0,0,0,0,0,0,0,0,0,0,0,0,0,0,0,0,0,0,0,0,0,0,0,0,0,0,0,0,0],"split_type":[0,0,0,0,0,0,0,0,0,0,0,0,0,0,0,0,0,0,0,0,0,0,0,0,0,0,0,0,0,0,0,0,0,0,0,0,0,0,0,0,0,0,0,0,0,0,0,0,0,0,0,0,0,0,0,0,0,0,0,0,0,0,0,0,0,0,0,0,0,0,0,0,0,0,0,0,0,0,0,0,0,0,0,0,0,0,0,0,0,0,0,0,0,0,0,0,0,0,0,0,0,0,0,0,0,0,0,0,0,0,0,0,0,0,0,0,0,0,0,0,0,0,0],"sum_hessian":[1.1234E4,5.433E3,5.801E3,2.659E3,2.774E3,2.883E3,2.918E3,1.4E3,1.259E3,1.463E3,1.311E3,1.403E3,1.48E3,1.526E3,1.392E3,1.313E3,8.7E1,4.67E2,7.92E2,4.39E2,1.024E3,8.82E2,4.29E2,4.86E2,9.17E2,6.92E2,7.88E2,5.09E2,1.017E3,5.71E2,8.21E2,7.09E2,6.04E2,3.9E1,4.8E1,4.29E2,3.8E1,7.29E2,6.3E1,4.02E2,3.7E1,5.25E2,4.99E2,1.89E2,6.93E2,1.92E2,2.37E2,2.44E2,2.42E2,6.13E2,3.04E2,1.49E2,5.43E2,5.27E2,2.61E2,2.77E2,2.32E2,4.52E2,5.65E2,4.35E2,1.36E2,6.11E2,2.1E2,2.7E2,4.39E2,3.98E2,2.06E2,3.1E2,1.19E2,2.3E1,1.5E1,3.53E2,3.76E2,3.4E1,2.9E1,2.22E2,1.8E2,2.2E1,1.5E1,4.85E2,4E1,2.23E2,2.76E2,8.8E1,1.01E2,1.24E2,5.69E2,1.78E2,1.4E1,1.85E2,5.2E1,3E1,2.14E2,2.27E2,1.5E1,5.76E2,3.7E1,1.65E2,1.39E2,3.8E1,1.11E2,1.73E2,3.7E2,2.5E2,2.77E2,8.7E1,1.74E2,6.9E1,2.08E2,1.13E2,1.19E2,1.46E2,3.06E2,2.34E2,3.31E2,2.18E2,2.17E2,4.7E1,8.9E1,2.94E2,3.17E2,1.45E2,6.5E1],"tree_param":{"num_deleted":"0","num_feature":"34","num_nodes":"123","size_leaf_vector":"1"}},{"base_weights":[7.578941E-2,-2.6206278E1,2.559821E1,-3.901202E1,-1.31800585E1,1.2695918E1,3.9360695E1,-4.5184677E1,-3.1877457E1,-1.856903E1,-5.6897917E0,5.761916E0,1.8908041E1,3.1107141E1,5.0087673E1,-4.9469864E1,-4.0450706E1,-3.7021812E1,-2.8353033E1,-2.4370941E1,-1.4701791E1,-1.07691765E1,-5.825249E-1,-1.8046778E0,1.0521062E1,1.1427486E1,2.5752462E1,2.1210142E1,3.5326527E1,4.1284477E1,5.560232E1,-5.2481564E1,-4.543242E1,-4.1520355E1,-2.69165E1,-3.7716297E1,-2.2889002E1,-2.9199547E1,-1.1713329E1,-2.8131699E1,-2.1015028E1,-1.7288935E1,-1.0131757E1,-1.5540485E1,-6.59772E0,-6.4013467E0,3.9227011E0,-9.140517E0,1.1226349E0,5.7692003E0,1.5360565E1,6.542962E0,1.5938547E1,2.194756E1,3.23037E1,1.4616579E1,2.4865667E1,2.9131798E1,4.1009026E1,3.5416405E1,4.6272278E1,5.274094E1,3.4646757E0,-2.6545734E0,-1.9265503E0,-2.3135927E0,-1.5256419E0,-2.233521E0,-1.9155763E0,-1.5340046E0,-1.0170968E0,-1.9995168E0,-1.6984822E0,-1.2784595E0,-7.3382455E-1,-1.6053545E0,-1.3106085E0,-6.769538E-1,-1.4668402E-1,-1.4508188E0,-5.4150504E-1,-1.3365344E0,-9.185686E-1,-9.139679E-1,-2.2335938E-1,-7.0176256E-1,-3.0735132E-1,-8.1745815E-1,-4.2905014E-2,-3.779684E-1,2.2932532E-1,-3.5877904E-1,5.531946E-1,6.935078E-2,5.136657E-1,-7.122339E-1,-2.9802492E-1,1.2004504E-2,8.583973E-1,-7.657389E-2,4.3120414E-1,4.1515955E-1,9.331231E-1,1.1571864E-1,5.041702E-1,6.620473E-1,1.1226499E0,9.046222E-1,1.3287525E0,1.2873764E0,1.8126986E0,3.9537296E-1,9.071156E-1,1.0540665E0,1.5410557E0,1.193436E0,1.6713879E0,1.7724594E0,2.2473462E0,1.5206645E0,1.9715887E0,2.114955E0,2.619781E0,2.411252E0,2.8912063E0],"categories":[],"categories_nodes":[],"categories_segments":[],"categories_sizes":[],"default_left":[0,0,0,0,0,0,0,0,0,0,0,0,0,0,0,0,0,0,0,0,0,0,0,0,0,0,0,0,0,0,0,0,0,0,0,0,0,0,0,0,0,0,0,0,0,0,0,0,0,0,0,0,0,0,0,0,0,0,0,0,0,0,0,0,0,0,0,0,0,0,0,0,0,0,0,0,0,0,0,0,0,0,0,0,0,0,0,0,0,0,0,0,0,0,0,0,0,0,0,0,0,0,0,0,0,0,0,0,0,0,0,0,0,0,0,0,0,0,0,0,0,0,0,0,0],"id":2,"left_children":[1,3,5,7,9,11,13,15,17,19,21,23,25,27,29,31,33,35,37,39,41,43,45,47,49,51,53,55,57,59,61,63,65,67,69,71,73,75,77,79,81,83,85,87,89,91,93,95,97,99,101,103,105,107,109,111,113,115,117,119,121,123,-1,-1,-1,-1,-1,-1,-1,-1,-1,-1,-1,-1,-1,-1,-1,-1,-1,-1,-1,-1,-1,-1,-1,-1,-1,-1,-1,-1,-1,-1,-1,-1,-1,-1,-1,-1,-1,-1,-1,-1,-1,-1,-1,-1,-1,-1,-1,-1,-1,-1,-1,-1,-1,-1,-1,-1,-1,-1,-1,-1,-1,-1,-1],"loss_changes":[7.502026E6,9.186055E5,1.00701325E6,1.20893E5,1.10209E5,1.2609794E5,2.414645E5,2.815525E4,2.2369E4,3.5290812E4,2.9695922E4,4.9930445E4,7.8806125E4,6.4139E4,5.556225E4,7.041625E3,9.183125E3,4.254125E3,1.0514E4,7.4054375E3,1.1125203E4,1.1319758E4,1.5020399E4,1.1521287E4,1.9479414E4,1.6198906E4,1.9376625E4,1.0888656E4,3.70975E4,1.19045E4,2.49315E4,1.67175E3,2.8260625E3,4.9315E3,7.3172266E2,2.8600625E3,2.1500977E2,5.519375E3,5.837803E2,4.2124375E3,4.6267812E3,7.6497344E3,5.324621E3,3.154418E3,3.3475957E3,3.4595498E3,5.1859033E3,2.3964668E3,5.431849E3,8.99707E3,9.652797E3,5.3200977E3,6.4473125E3,8.666391E3,6.6745625E3,3.8515586E3,6.08375E3,1.1044031E4,1.07688125E4,3.153125E3,3.7835625E3,1.11575E4,0E0,0E0,0E0,0E0,0E0,0E0,0E0,0E0,0E0,0E0,0E0,0E0,0E0,0E0,0E0,0E0,0E0,0E0,0E0,0E0,0E0,0E0,0E0,0E0,0E0,0E0,0E0,0E0,0E0,0E0,0E0,0E0,0E0,0E0,0E0,0E0,0E0,0E0,0E0,0E0,0E0,0E0,0E0,0E0,0E0,0E0,0E0,0E0,0E0,0E0,0E0,0E0,0E0,0E0,0E0,0E0,0E0,0E0,0E0,0E0,0E0,0E0,0E0],"parents":[2147483647,0,0,1,1,2,2,3,3,4,4,5,5,6,6,7,7,8,8,9,9,10,10,11,11,12,12,13,13,14,14,15,15,16,16,17,17,18,18,19,19,20,20,21,21,22,22,23,23,24,24,25,25,26,26,27,27,28,28,29,29,30,30,31,31,32,32,33,33,34,34,35,35,36,36,37,37,38,38,39,39,40,40,41,41,42,42,43,43,44,44,45,45,46,46,47,47,48,48,49,49,50,50,51,51,52,52,53,53,54,54,55,55,56,56,57,57,58,58,59,59,60,60,61,61],"right_children":[2,4,6,8,10,12,14,16,18,20,22,24,26,28,30,32,34,36,38,40,42,44,46,48,50,52,54,56,58,60,62,64,66,68,70,72,74,76,78,80,82,84,86,88,90,92,94,96,98,100,102,104,106,108,110,112,114,116,118,120,122,124,-1,-1,-1,-1,-1,-1,-1,-1,-1,-1,-1,-1,-1,-1,-1,-1,-1,-1,-1,-1,-1,-1,-1,-1,-1,-1,-1,-1,-1,-1,-1,-1,-1,-1,-1,-1,-1,-1,-1,-1,-1,-1,-1,-1,-1,-1,-1,-1,-1,-1,-1,-1,-1,-1,-1,-1,-1,-1,-1,-1,-1,-1,-1],"split_conditions":[6E1,3.1E1,9.1E1,1.7E1,4.8E1,5.7457504E1,5.947943E1,1.8259714E1,1.6855825E1,1.6566874E1,1.8003178E1,7.2E1,7.5E1,5.1056362E1,1.02E2,1E1,8E0,1.7E1,1.9E1,3.9E1,6.0099823E1,5.730092E1,5.6903656E1,1.461923E1,1.7717224E1,1.7717224E1,6.442126E1,4.6523876E1,1.05E2,6.3744534E1,6.92571E1,1.5E1,1.2E1,9E0,1.1E1,2.6E1,2.7E1,2.4E1,3.6E1,2.1E1,5.354048E1,1.3E1,3.9E1,1.7E1,7.034834E1,1.1E1,6.5988556E1,5.0491947E1,1.6E1,4.9710262E1,5.0109615E1,6.228096E1,6.526278E1,1.875844E1,1.6457537E1,1.506682E1,1.08E2,1.7165405E1,1.6512825E1,1.7165405E1,1.998332E1,1.851854E1,3.4646757E0,-2.6545734E0,-1.9265503E0,-2.3135927E0,-1.5256419E0,-2.233521E0,-1.9155763E0,-1.5340046E0,-1.0170968E0,-1.9995168E0,-1.6984822E0,-1.2784595E0,-7.3382455E-1,-1.6053545E0,-1.3106085E0,-6.769538E-1,-1.4668402E-1,-1.4508188E0,-5.4150504E-1,-1.3365344E0,-9.185686E-1,-9.139679E-1,-2.2335938E-1,-7.0176256E-1,-3.0735132E-1,-8.1745815E-1,-4.2905014E-2,-3.779684E-1,2.2932532E-1,-3.5877904E-1,5.531946E-1,6.935078E-2,5.136657E-1,-7.122339E-1,-2.9802492E-1,1.2004504E-2,8.583973E-1,-7.657389E-2,4.3120414E-1,4.1515955E-1,9.331231E-1,1.1571864E-1,5.041702E-1,6.620473E-1,1.1226499E0,9.046222E-1,1.3287525E0,1.2873764E0,1.8126986E0,3.9537296E-1,9.071156E-1,1.0540665E0,1.5410557E0,1.193436E0,1.6713879E0,1.7724594E0,2.2473462E0,1.5206645E0,1.9715887E0,2.114955E0,2.619781E0,2.411252E0,2.8912063E0],"split_indices":[18,18,18,18,18,24,24,19,19,19,19,18,18,24,18,18,27,27,27,18,24,24,24,19,19,19,24,24,18,24,24,27,27,18,18,18,18,18,27,27,24,27,18,27,24,27,24,24,27,24,24,24,24,19,19,19,18,19,19,19,19,19,0,0,0,0,0,0,0,0,0,0,0,0,0,0,0,0,0,0,0,0,0,0,0,0,0,0,0,0,0,0,0,0,0,0,0,0,0,0,0,0,0,0,0,0,0,0,0,0,0,0,0,0,0,0,0,0,0,0,0,0,0,0,0],"split_type":[0,0,0,0,0,0,0,0,0,0,0,0,0,0,0,0,0,0,0,0,0,0,0,0,0,0,0,0,0,0,0,0,0,0,0,0,0,0,0,0,0,0,0,0,0,0,0,0,0,0,0,0,0,0,0,0,0,0,0,0,0,0,0,0,0,0,0,0,0,0,0,0,0,0,0,0,0,0,0,0,0,0,0,0,0,0,0,0,0,0,0,0,0,0,0,0,0,0,0,0,0,0,0,0,0,0,0,0,0,0,0,0,0,0,0,0,0,0,0,0,0,0,0,0,0],"sum_hessian":[1.1182E4,5.509E3,5.673E3,2.777E3,2.732E3,2.929E3,2.744E3,1.486E3,1.291E3,1.588E3,1.144E3,1.385E3,1.544E3,1.553E3,1.191E3,7.75E2,7.11E2,5.21E2,7.7E2,6.33E2,9.55E2,5.73E2,5.71E2,5.35E2,8.5E2,7.39E2,8.05E2,4.66E2,1.087E3,4.62E2,7.29E2,4.37E2,3.38E2,6.57E2,5.4E1,4.95E2,2.6E1,7.32E2,3.8E1,2.95E2,3.38E2,6.08E2,3.47E2,2.66E2,3.07E2,2.49E2,3.22E2,1.52E2,3.83E2,4.3E2,4.2E2,3.56E2,3.83E2,5.12E2,2.93E2,1.68E2,2.98E2,5.23E2,5.64E2,2.16E2,2.46E2,6.07E2,1.22E2,4.16E2,2.1E1,3.18E2,2E1,3.25E2,3.32E2,3.2E1,2.2E1,3.02E2,1.93E2,1.8E1,8E0,3.66E2,3.66E2,3.1E1,7E0,2.8E2,1.5E1,1.04E2,2.34E2,5.64E2,4.4E1,1.74E2,1.73E2,2.52E2,1.4E1,2.83E2,2.4E1,2.39E2,1E1,2.31E2,9.1E1,5.7E1,9.5E1,3.64E2,1.9E1,1.21E2,3.09E2,1.35E2,2.85E2,1.63E2,1.93E2,2.73E2,1.1E2,2.82E2,2.3E2,1.13E2,1.8E2,5.9E1,1.09E2,1.85E2,1.13E2,2.38E2,2.85E2,2.38E2,3.26E2,1E2,1.16E2,1.54E2,9.2E1,3.27E2,2.8E2],"tree_param":{"num_deleted":"0","num_feature":"34","num_nodes":"125","size_leaf_vector":"1"}},{"base_weights":[-4.4489168E-2,-2.4585503E1,2.4698643E1,-3.7208466E1,-1.2237534E1,1.2496635E1,3.7246223E1,-4.336412E1,-3.0832533E1,-1.7595608E1,-5.245169E0,6.9846487E0,1.9937656E1,2.7263695E1,4.5361607E1,-4.752276E1,-3.8554626E1,-3.7002705E1,-2.7737263E1,-2.323928E1,-1.3979444E1,-8.66883E0,1.387182E0,1.5785916E0,1.275218E1,1.3148518E1,2.6626513E1,1.88143E1,3.107398E1,3.9103756E1,5.2197876E1,-4.81188E1,-1.5765501E0,-3.942122E1,-2.4841728E1,-3.7653374E1,-2.2480335E1,-2.8556833E1,-1.0824966E1,-2.772123E1,-2.0432806E1,-1.726497E1,-1.0176497E1,-1.3501079E1,-4.5085425E0,-4.0968704E0,5.2517867E0,-2.651615E0,6.3498635E0,3.7008889E0,1.5503235E1,8.21464E0,1.7957254E1,2.1232977E1,3.0379875E1,1.3617793E1,2.3039164E1,2.6890598E1,3.8000874E1,3.391864E1,4.5817867E1,4.6818386E1,6.0004204E1,-2.5527637E0,-2.2666616E0,-2.1262333E0,-1.8335603E0,-1.397494E0,-8.688534E-1,-2.0106096E0,-1.7214539E0,-1.2550237E0,-6.6328424E-1,-1.5044988E0,-1.1238999E0,-6.203958E-1,-3.355521E-2,-1.4231933E0,-6.8728775E-1,-1.1901102E0,-8.3044165E-1,-9.545828E-1,-5.9093297E-1,-7.0845395E-1,-3.3154294E-1,-9.209385E-1,-5.635934E-1,-2.6545978E-1,4.7932482E-1,-2.4535966E-1,5.6916094E-1,1.9156998E-1,6.3814E-1,-3.6804637E-1,1.6012475E-2,3.832702E-2,4.6664667E-1,-1.02961265E-1,3.737264E-1,5.73238E-1,1.0006454E0,2.772776E-1,5.857708E-1,8.286786E-1,1.6028751E0,9.3080443E-1,1.3312668E0,1.3204337E0,1.7815231E0,5.811812E-1,1.2879521E0,5.630232E-1,1.2496872E0,1.1557811E0,1.6465744E0,1.6689112E0,2.1150367E0,1.4164768E0,1.8906122E0,2.118533E0,2.7078989E0,2.1254487E0,2.554472E0,2.8106275E0,3.3859348E0],"categories":[],"categories_nodes":[],"categories_segments":[],"categories_sizes":[],"default_left":[0,0,0,0,0,0,0,0,0,0,0,0,0,0,0,0,0,0,0,0,0,0,0,0,0,0,0,0,0,0,0,0,0,0,0,0,0,0,0,0,0,0,0,0,0,0,0,0,0,0,0,0,0,0,0,0,0,0,0,0,0,0,0,0,0,0,0,0,0,0,0,0,0,0,0,0,0,0,0,0,0,0,0,0,0,0,0,0,0,0,0,0,0,0,0,0,0,0,0,0,0,0,0,0,0,0,0,0,0,0,0,0,0,0,0,0,0,0,0,0,0,0,0,0,0],"id":3,"left_children":[1,3,5,7,9,11,13,15,17,19,21,23,25,27,29,31,33,35,37,39,41,43,45,47,49,51,53,55,57,59,61,63,-1,65,67,69,71,73,75,77,79,81,83,85,87,89,91,93,95,97,99,101,103,105,107,109,111,113,115,117,119,121,123,-1,-1,-1,-1,-1,-1,-1,-1,-1,-1,-1,-1,-1,-1,-1,-1,-1,-1,-1,-1,-1,-1,-1,-1,-1,-1,-1,-1,-1,-1,-1,-1,-1,-1,-1,-1,-1,-1,-1,-1,-1,-1,-1,-1,-1,-1,-1,-1,-1,-1,-1,-1,-1,-1,-1,-1,-1,-1,-1,-1,-1,-1],"loss_changes":[6.810597E6,8.7723225E5,8.54625E5,1.0792225E5,1.0660753E5,1.1605297E5,2.2178225E5,2.644025E4,2.5151125E4,3.2569812E4,2.8101215E4,5.0770008E4,5.4366875E4,3.9235062E4,6.28475E4,5.661625E3,6.86925E3,3.4469375E3,1.239725E4,7.3280625E3,1.21288125E4,1.6341824E4,8.96537E3,1.7011686E4,1.9562375E4,1.4085289E4,1.1617625E4,8.179E3,2.3631812E4,2.61495E4,2.7499625E4,3.60625E3,0E0,3.7240625E3,4.8423633E2,2.18875E3,1.9434863E2,7.4638125E3,6.975796E2,2.0850312E3,4.6255625E3,5.0142344E3,6.4016875E3,3.9222969E3,5.0159736E3,2.2503894E3,2.5952407E3,6.259023E3,6.5873916E3,4.0372024E3,1.0767578E4,2.7177812E3,5.3754375E3,3.055836E3,6.4549688E3,3.9581035E3,4.5956875E3,1.1410594E4,4.9013125E3,8.780281E3,7.5856875E3,5.7701875E3,4.693E3,0E0,0E0,0E0,0E0,0E0,0E0,0E0,0E0,0E0,0E0,0E0,0E0,0E0,0E0,0E0,0E0,0E0,0E0,0E0,0E0,0E0,0E0,0E0,0E0,0E0,0E0,0E0,0E0,0E0,0E0,0E0,0E0,0E0,0E0,0E0,0E0,0E0,0E0,0E0,0E0,0E0,0E0,0E0,0E0,0E0,0E0,0E0,0E0,0E0,0E0,0E0,0E0,0E0,0E0,0E0,0E0,0E0,0E0,0E0,0E0,0E0,0E0],"parents":[2147483647,0,0,1,1,2,2,3,3,4,4,5,5,6,6,7,7,8,8,9,9,10,10,11,11,12,12,13,13,14,14,15,15,16,16,17,17,18,18,19,19,20,20,21,21,22,22,23,23,24,24,25,25,26,26,27,27,28,28,29,29,30,30,31,31,33,33,34,34,35,35,36,36,37,37,38,38,39,39,40,40,41,41,42,42,43,43,44,44,45,45,46,46,47,47,48,48,49,49,50,50,51,51,52,52,53,53,54,54,55,55,56,56,57,57,58,58,59,59,60,60,61,61,62,62],"right_children":[2,4,6,8,10,12,14,16,18,20,22,24,26,28,30,32,34,36,38,40,42,44,46,48,50,52,54,56,58,60,62,64,-1,66,68,70,72,74,76,78,80,82,84,86,88,90,92,94,96,98,100,102,104,106,108,110,112,114,116,118,120,122,124,-1,-1,-1,-1,-1,-1,-1,-1,-1,-1,-1,-1,-1,-1,-1,-1,-1,-1,-1,-1,-1,-1,-1,-1,-1,-1,-1,-1,-1,-1,-1,-1,-1,-1,-1,-1,-1,-1,-1,-1,-1,-1,-1,-1,-1,-1,-1,-1,-1,-1,-1,-1,-1,-1,-1,-1,-1,-1,-1,-1,-1,-1],"split_conditions":[6.1E1,3.1E1,9.1E1,1.6E1,4.8E1,5.932548E1,5.708239E1,1.845239E1,1.5527139E1,1.6566874E1,6.0842922E1,7.7E1,7.6E1,5.026965E1,1.06E2,2.2E1,1.3E1,1.8E1,2E1,5.501108E1,4E1,1.7215843E1,1.7215843E1,1.8215319E1,4.9710262E1,1.7843716E1,1.6512825E1,1.03E2,1.09E2,6.3744534E1,6.3647907E1,8E0,-1.5765501E0,8E0,1.1E1,2.4E1,2.7E1,2.4309278E1,2.8895529E1,1.8E1,4E1,2.4758875E1,5.6856136E1,5.2083405E1,1.1E1,2.4E1,6.9751816E1,5.2758846E1,5.138316E1,1.603058E1,1.8060772E1,6.9E1,1E1,6.612076E1,6.526278E1,2.3792263E1,4.3136322E1,1.9794754E1,1.813645E1,1.6791645E1,2.2027239E1,1.8060772E1,6.92571E1,-2.5527637E0,-2.2666616E0,-2.1262333E0,-1.8335603E0,-1.397494E0,-8.688534E-1,-2.0106096E0,-1.7214539E0,-1.2550237E0,-6.6328424E-1,-1.5044988E0,-1.1238999E0,-6.203958E-1,-3.355521E-2,-1.4231933E0,-6.8728775E-1,-1.1901102E0,-8.3044165E-1,-9.545828E-1,-5.9093297E-1,-7.0845395E-1,-3.3154294E-1,-9.209385E-1,-5.635934E-1,-2.6545978E-1,4.7932482E-1,-2.4535966E-1,5.6916094E-1,1.9156998E-1,6.3814E-1,-3.6804637E-1,1.6012475E-2,3.832702E-2,4.6664667E-1,-1.02961265E-1,3.737264E-1,5.73238E-1,1.0006454E0,2.772776E-1,5.857708E-1,8.286786E-1,1.6028751E0,9.3080443E-1,1.3312668E0,1.3204337E0,1.7815231E0,5.811812E-1,1.2879521E0,5.630232E-1,1.2496872E0,1.1557811E0,1.6465744E0,1.6689112E0,2.1150367E0,1.4164768E0,1.8906122E0,2.118533E0,2.7078989E0,2.1254487E0,2.554472E0,2.8106275E0,3.3859348E0],"split_indices":[18,18,18,18,18,24,24,19,19,19,24,18,18,24,18,27,27,27,27,24,18,19,19,19,24,19,19,18,18,24,24,18,0,18,18,18,18,19,19,27,18,19,24,24,27,27,24,24,24,19,19,18,27,24,24,19,24,19,19,19,19,19,24,0,0,0,0,0,0,0,0,0,0,0,0,0,0,0,0,0,0,0,0,0,0,0,0,0,0,0,0,0,0,0,0,0,0,0,0,0,0,0,0,0,0,0,0,0,0,0,0,0,0,0,0,0,0,0,0,0,0,0,0,0,0],"split_type":[0,0,0,0,0,0,0,0,0,0,0,0,0,0,0,0,0,0,0,0,0,0,0,0,0,0,0,0,0,0,0,0,0,0,0,0,0,0,0,0,0,0,0,0,0,0,0,0,0,0,0,0,0,0,0,0,0,0,0,0,0,0,0,0,0,0,0,0,0,0,0,0,0,0,0,0,0,0,0,0,0,0,0,0,0,0,0,0,0,0,0,0,0,0,0,0,0,0,0,0,0,0,0,0,0,0,0,0,0,0,0,0,0,0,0,0,0,0,0,0,0,0,0,0,0],"sum_hessian":[1.1214E4,5.63E3,5.584E3,2.783E3,2.847E3,2.832E3,2.752E3,1.413E3,1.37E3,1.611E3,1.236E3,1.628E3,1.204E3,1.236E3,1.516E3,7.53E2,6.6E2,4.54E2,9.16E2,6.27E2,9.84E2,8.15E2,4.21E2,8.41E2,7.87E2,5.99E2,6.05E2,3.86E2,8.5E2,7.95E2,7.21E2,7.24E2,2.9E1,6.19E2,4.1E1,4.33E2,2.1E1,8.73E2,4.3E1,2.38E2,3.89E2,5.26E2,4.58E2,3.76E2,4.39E2,1.74E2,2.47E2,4.46E2,3.95E2,1.84E2,6.03E2,2.97E2,3.02E2,2.51E2,3.54E2,1.75E2,2.11E2,5.33E2,3.17E2,4.52E2,3.43E2,4.31E2,2.9E2,3.44E2,3.8E2,2.84E2,3.35E2,2.7E1,1.4E1,2.35E2,1.98E2,1.5E1,6E0,6.94E2,1.79E2,3.7E1,6E0,2.25E2,1.3E1,2.04E2,1.85E2,3.92E2,1.34E2,2.14E2,2.44E2,1.15E2,2.61E2,4.16E2,2.3E1,1.66E2,8E0,2.09E2,3.8E1,1.72E2,2.74E2,1.38E2,2.57E2,7.3E1,1.11E2,3.2E2,2.83E2,1.7E2,1.27E2,2.77E2,2.5E1,1.72E2,7.9E1,2.05E2,1.49E2,1.52E2,2.3E1,3.1E1,1.8E2,3.31E2,2.02E2,1.57E2,1.6E2,1.89E2,2.63E2,2.47E2,9.6E1,2.2E2,2.11E2,2E2,9E1],"tree_param":{"num_deleted":"0","num_feature":"34","num_nodes":"125","size_leaf_vector":"1"}},{"base_weights":[-8.395833E-4,-2.23665E1,2.4258923E1,-3.4799225E1,-1.0384625E1,1.3614017E1,3.6248566E1,-4.0419144E1,-2.8061338E1,-1.607763E1,-3.5908256E0,7.4574747E0,1.995478E1,2.6040731E1,4.3546917E1,-4.4311165E1,-3.576399E1,-3.1402826E1,-2.2734661E1,-2.0058558E1,-1.151934E1,-7.0172243E0,2.8319864E0,3.1476626E0,1.4029912E1,1.4043377E1,2.6582457E1,1.5803781E1,2.8762926E1,3.9711845E1,5.230455E1,-4.7294987E1,-4.084598E1,-3.67044E1,-2.2007843E1,-3.2139866E1,-1.8090189E1,-2.3769485E1,-1.1085272E1,-2.2321922E1,-1.5289217E1,-1.3931199E1,-6.9815817E0,-1.0993403E1,-2.2180758E0,-1.1152934E0,7.439715E0,8.4345526E-1,1.1078257E1,7.957444E0,1.7740019E1,1.0227709E1,1.9668201E1,2.2958872E1,3.231457E1,6.6815395E0,1.8008234E1,2.3560108E1,3.251517E1,3.486527E1,4.628774E1,4.7757915E1,6.0779785E1,-2.3906376E0,-1.5208936E0,-2.0809503E0,-1.3562922E0,-1.9775648E0,-1.671217E0,-1.2936138E0,-8.706838E-1,-1.8479389E0,-1.5239671E0,-1.0170563E0,-4.1964427E-1,-1.3373338E0,-1.0402346E0,-6.654319E-1,-2.4614976E-1,-1.1571895E0,-5.00472E-1,-9.5950407E-1,-5.827587E-1,-7.4005264E-1,-7.167541E-2,-5.128735E-1,-1.6129446E-1,-7.628283E-1,-4.138523E-1,-3.793667E-1,-2.5501542E-3,-1.4818808E-1,2.3275924E-1,3.2193393E-1,1.0242214E0,-2.0605917E-1,1.7929827E-1,4.9797827E-1,1.195325E0,1.654518E-1,6.2038153E-1,7.431924E-1,1.202057E0,2.7787694E-1,6.642492E-1,9.106726E-1,1.6265379E0,8.460962E-1,1.2854426E0,1.220813E0,1.7579327E0,1.7540501E-1,5.6206244E-1,5.766689E-1,1.0469007E0,9.1482604E-1,1.3698318E0,1.4453834E0,1.8878281E0,1.5393196E0,1.9307765E0,2.1534164E0,2.6440725E0,2.1696553E0,2.7021537E0,2.8087797E0,3.324068E0],"categories":[],"categories_nodes":[],"categories_segments":[],"categories_sizes":[],"default_left":[0,0,0,0,0,0,0,0,0,0,0,0,0,0,0,0,0,0,0,0,0,0,0,0,0,0,0,0,0,0,0,0,0,0,0,0,0,0,0,0,0,0,0,0,0,0,0,0,0,0,0,0,0,0,0,0,0,0,0,0,0,0,0,0,0,0,0,0,0,0,0,0,0,0,0,0,0,0,0,0,0,0,0,0,0,0,0,0,0,0,0,0,0,0,0,0,0,0,0,0,0,0,0,0,0,0,0,0,0,0,0,0,0,0,0,0,0,0,0,0,0,0,0,0,0,0,0],"id":4,"left_children":[1,3,5,7,9,11,13,15,17,19,21,23,25,27,29,31,33,35,37,39,41,43,45,47,49,51,53,55,57,59,61,63,65,67,69,71,73,75,77,79,81,83,85,87,89,91,93,95,97,99,101,103,105,107,109,111,113,115,117,119,121,123,125,-1,-1,-1,-1,-1,-1,-1,-1,-1,-1,-1,-1,-1,-1,-1,-1,-1,-1,-1,-1,-1,-1,-1,-1,-1,-1,-1,-1,-1,-1,-1,-1,-1,-1,-1,-1,-1,-1,-1,-1,-1,-1,-1,-1,-1,-1,-1,-1,-1,-1,-1,-1,-1,-1,-1,-1,-1,-1,-1,-1,-1,-1,-1,-1],"loss_changes":[6.050373E6,8.6394225E5,6.82187E5,1.066645E5,1.14269875E5,1.1051881E5,1.862275E5,2.649E4,2.2383875E4,2.8944906E4,2.9707889E4,4.0743516E4,5.4316375E4,2.8829125E4,4.71175E4,6.7445E3,8.3841875E3,7.214E3,5.8087656E3,8.9060625E3,8.130867E3,1.67667E4,8.557286E3,1.5905885E4,1.2698086E4,1.5678094E4,1.2898969E4,4.3616367E3,1.5412375E4,3.09815E4,1.415675E4,2.4264375E3,3.0641875E3,4.8711875E3,3.9732422E2,4.8841875E3,7.8683887E2,3.51675E3,5.218013E2,5.6240625E3,3.7283242E3,5.3040234E3,3.2013115E3,5.4414766E3,4.6530786E3,2.7229302E3,2.6990527E3,9.218852E3,2.5712812E3,4.4669805E3,6.0362266E3,6.2494375E3,4.978539E3,6.3008906E3,4.7964062E3,6.102377E2,3.150879E3,6.5822344E3,7.9589688E3,7.87525E3,6.862125E3,5.6831875E3,2.170625E2,0E0,0E0,0E0,0E0,0E0,0E0,0E0,0E0,0E0,0E0,0E0,0E0,0E0,0E0,0E0,0E0,0E0,0E0,0E0,0E0,0E0,0E0,0E0,0E0,0E0,0E0,0E0,0E0,0E0,0E0,0E0,0E0,0E0,0E0,0E0,0E0,0E0,0E0,0E0,0E0,0E0,0E0,0E0,0E0,0E0,0E0,0E0,0E0,0E0,0E0,0E0,0E0,0E0,0E0,0E0,0E0,0E0,0E0,0E0,0E0,0E0,0E0,0E0,0E0],"parents":[2147483647,0,0,1,1,2,2,3,3,4,4,5,5,6,6,7,7,8,8,9,9,10,10,11,11,12,12,13,13,14,14,15,15,16,16,17,17,18,18,19,19,20,20,21,21,22,22,23,23,24,24,25,25,26,26,27,27,28,28,29,29,30,30,31,31,32,32,33,33,34,34,35,35,36,36,37,37,38,38,39,39,40,40,41,41,42,42,43,43,44,44,45,45,46,46,47,47,48,48,49,49,50,50,51,51,52,52,53,53,54,54,55,55,56,56,57,57,58,58,59,59,60,60,61,61,62,62],"right_children":[2,4,6,8,10,12,14,16,18,20,22,24,26,28,30,32,34,36,38,40,42,44,46,48,50,52,54,56,58,60,62,64,66,68,70,72,74,76,78,80,82,84,86,88,90,92,94,96,98,100,102,104,106,108,110,112,114,116,118,120,122,124,126,-1,-1,-1,-1,-1,-1,-1,-1,-1,-1,-1,-1,-1,-1,-1,-1,-1,-1,-1,-1,-1,-1,-1,-1,-1,-1,-1,-1,-1,-1,-1,-1,-1,-1,-1,-1,-1,-1,-1,-1,-1,-1,-1,-1,-1,-1,-1,-1,-1,-1,-1,-1,-1,-1,-1,-1,-1,-1,-1,-1,-1,-1,-1,-1],"split_conditions":[6.3E1,3.2E1,9.3E1,1.8E1,4.9E1,5.8060966E1,5.660748E1,1.845239E1,1.998332E1,1.8574926E1,6.0842922E1,8.2E1,7.9E1,4.794865E1,6.505097E1,1E1,1.7E1,1.7E1,6E0,6.099088E1,6.0099823E1,1.8574926E1,1.9132362E1,2.2116587E1,5.1478374E1,1.9794754E1,6.442126E1,1.2524913E1,1.05E2,1.09E2,1.1E2,2.3E1,1.1E1,1E1,1E1,1.21750145E1,3E1,2.5E1,6.3923748E1,1.2E1,4E1,1.4E1,4.1E1,5.3456093E1,5.1991634E1,6.8821945E1,1.7E1,5.072147E1,1.1E1,1.7559816E1,2.0560009E1,6.9E1,8E0,1.5289889E1,1.3980193E1,1.11E2,1.01E2,1.669103E1,1.9191507E1,1.750859E1,2.0560009E1,1.924164E1,6.94815E1,-2.3906376E0,-1.5208936E0,-2.0809503E0,-1.3562922E0,-1.9775648E0,-1.671217E0,-1.2936138E0,-8.706838E-1,-1.8479389E0,-1.5239671E0,-1.0170563E0,-4.1964427E-1,-1.3373338E0,-1.0402346E0,-6.654319E-1,-2.4614976E-1,-1.1571895E0,-5.00472E-1,-9.5950407E-1,-5.827587E-1,-7.4005264E-1,-7.167541E-2,-5.128735E-1,-1.6129446E-1,-7.628283E-1,-4.138523E-1,-3.793667E-1,-2.5501542E-3,-1.4818808E-1,2.3275924E-1,3.2193393E-1,1.0242214E0,-2.0605917E-1,1.7929827E-1,4.9797827E-1,1.195325E0,1.654518E-1,6.2038153E-1,7.431924E-1,1.202057E0,2.7787694E-1,6.642492E-1,9.106726E-1,1.6265379E0,8.460962E-1,1.2854426E0,1.220813E0,1.7579327E0,1.7540501E-1,5.6206244E-1,5.766689E-1,1.0469007E0,9.1482604E-1,1.3698318E0,1.4453834E0,1.8878281E0,1.5393196E0,1.9307765E0,2.1534164E0,2.6440725E0,2.1696553E0,2.7021537E0,2.8087797E0,3.324068E0],"split_indices":[18,18,18,18,18,24,24,19,19,19,24,18,18,24,24,18,27,27,27,24,24,19,19,19,24,19,24,19,18,18,18,27,27,18,18,19,18,18,24,27,18,27,18,24,24,24,27,24,27,19,19,18,27,19,19,18,18,19,19,19,19,19,24,0,0,0,0,0,0,0,0,0,0,0,0,0,0,0,0,0,0,0,0,0,0,0,0,0,0,0,0,0,0,0,0,0,0,0,0,0,0,0,0,0,0,0,0,0,0,0,0,0,0,0,0,0,0,0,0,0,0,0,0,0,0,0,0],"split_type":[0,0,0,0,0,0,0,0,0,0,0,0,0,0,0,0,0,0,0,0,0,0,0,0,0,0,0,0,0,0,0,0,0,0,0,0,0,0,0,0,0,0,0,0,0,0,0,0,0,0,0,0,0,0,0,0,0,0,0,0,0,0,0,0,0,0,0,0,0,0,0,0,0,0,0,0,0,0,0,0,0,0,0,0,0,0,0,0,0,0,0,0,0,0,0,0,0,0,0,0,0,0,0,0,0,0,0,0,0,0,0,0,0,0,0,0,0,0,0,0,0,0,0,0,0,0,0],"sum_hessian":[1.1149E4,5.801E3,5.348E3,2.846E3,2.955E3,2.834E3,2.514E3,1.549E3,1.297E3,1.607E3,1.348E3,1.439E3,1.395E3,1.05E3,1.464E3,8.39E2,7.1E2,7.94E2,5.03E2,8.56E2,7.51E2,8.79E2,4.69E2,8.7E2,5.69E2,7.39E2,6.56E2,2.22E2,8.28E2,1.022E3,4.42E2,4.44E2,3.95E2,6.63E2,4.7E1,7.51E2,4.3E1,4.61E2,4.2E1,5.78E2,2.78E2,4.89E2,2.62E2,4.8E2,3.99E2,2.53E2,2.16E2,6.75E2,1.95E2,2.17E2,3.52E2,4.42E2,2.97E2,4.05E2,2.51E2,4.4E1,1.78E2,3.5E2,4.78E2,5.92E2,4.3E2,2.92E2,1.5E2,4.29E2,1.5E1,3.72E2,2.3E1,3.49E2,3.14E2,2.3E1,2.4E1,1.87E2,5.64E2,3.4E1,9E0,2.26E2,2.35E2,3E1,1.2E1,5.41E2,3.7E1,1.32E2,1.46E2,4.57E2,3.2E1,1.39E2,1.23E2,1.85E2,2.95E2,1.14E2,2.85E2,1.92E2,6.1E1,2.02E2,1.4E1,2.4E2,4.35E2,1.81E2,1.4E1,1.07E2,1.1E2,2.44E2,1.08E2,1.76E2,2.66E2,2.69E2,2.8E1,1.29E2,2.76E2,6.9E1,1.82E2,2.7E1,1.7E1,5.7E1,1.21E2,1.5E2,2E2,2.87E2,1.91E2,2.88E2,3.04E2,2.94E2,1.36E2,1.77E2,1.15E2,8.9E1,6.1E1],"tree_param":{"num_deleted":"0","num_feature":"34","num_nodes":"127","size_leaf_vector":"1"}},{"base_weights":[-7.1946405E-2,-2.285474E1,2.1384756E1,-3.4275368E1,-1.2462527E1,1.0030724E1,3.32921E1,-3.940979E1,-2.9090807E1,-1.7935198E1,-6.996357E0,4.062297E0,1.5372647E1,2.6126095E1,4.2364872E1,-4.3365875E1,-3.489415E1,-3.2098995E1,-2.3637957E1,-2.1929478E1,-1.3565274E1,-1.07983885E1,-1.9951468E0,-7.2265494E-1,9.143129E0,7.0281625E0,2.0087412E1,1.838773E1,3.0205048E1,3.653169E1,4.896567E1,-4.392604E1,-1.5967735E0,-3.5884125E1,-2.3943035E1,-3.7493965E1,-3.0451494E1,-2.4647528E1,-1.1615748E1,-2.3138323E1,-1.0637825E1,-1.5871864E1,-9.401043E0,-1.5509347E1,-7.4105215E0,-5.7605724E0,2.2943757E0,-4.6492004E0,3.6636121E0,6.0466595E0,1.4537166E1,5.846413E0,2.3353966E1,1.726074E1,2.680299E1,1.2701536E1,2.1971195E1,2.3695978E1,3.454454E1,3.212455E1,4.1815674E1,4.2675064E1,5.3793617E1,-2.4182456E0,-2.110054E0,-1.9292039E0,-1.6681204E0,-1.3839734E0,-9.7406846E-1,-1.9188789E0,-1.34319E0,-1.5504788E0,-8.5213584E-1,-1.3630041E0,-1.1067216E0,-6.923668E-1,-1.986287E-1,-1.3106519E0,-9.9313736E-1,-6.3809156E-1,-2.5164092E-1,-8.3090687E-1,-2.1469593E-1,-5.462972E-1,-1.2490975E-1,-9.424163E-1,-6.5530163E-1,-4.1170198E-1,1.9455306E-1,-3.236979E-1,4.3412858E-1,6.583074E-2,7.092668E-1,-5.0095534E-1,-1.4088683E-1,-1.196064E-1,3.0829713E-1,2.239464E-1,6.1324775E-1,6.6604716E-1,1.4244741E0,9.727615E-2,5.111416E-1,5.469102E-1,1.2668489E0,6.956206E-1,1.0870832E0,1.0777816E0,1.516378E0,4.9749765E-1,9.7417015E-1,8.836595E-1,1.3497891E0,1.0579798E0,1.4837784E0,1.4990096E0,1.895584E0,1.3650014E0,1.8274416E0,1.9456214E0,2.4789305E0,2.0067515E0,2.4524722E0,2.561978E0,3.1538594E0],"categories":[],"categories_nodes":[],"categories_segments":[],"categories_sizes":[],"default_left":[0,0,0,0,0,0,0,0,0,0,0,0,0,0,0,0,0,0,0,0,0,0,0,0,0,0,0,0,0,0,0,0,0,0,0,0,0,0,0,0,0,0,0,0,0,0,0,0,0,0,0,0,0,0,0,0,0,0,0,0,0,0,0,0,0,0,0,0,0,0,0,0,0,0,0,0,0,0,0,0,0,0,0,0,0,0,0,0,0,0,0,0,0,0,0,0,0,0,0,0,0,0,0,0,0,0,0,0,0,0,0,0,0,0,0,0,0,0,0,0,0,0,0,0,0],"id":5,"left_children":[1,3,5,7,9,11,13,15,17,19,21,23,25,27,29,31,33,35,37,39,41,43,45,47,49,51,53,55,57,59,61,63,-1,65,67,69,71,73,75,77,79,81,83,85,87,89,91,93,95,97,99,101,103,105,107,109,111,113,115,117,119,121,123,-1,-1,-1,-1,-1,-1,-1,-1,-1,-1,-1,-1,-1,-1,-1,-1,-1,-1,-1,-1,-1,-1,-1,-1,-1,-1,-1,-1,-1,-1,-1,-1,-1,-1,-1,-1,-1,-1,-1,-1,-1,-1,-1,-1,-1,-1,-1,-1,-1,-1,-1,-1,-1,-1,-1,-1,-1,-1,-1,-1,-1,-1],"loss_changes":[5.512201E6,6.486595E5,7.8474675E5,6.819125E4,8.557722E4,9.475528E4,1.831405E5,2.1809625E4,2.0559875E4,2.4676688E4,2.7263352E4,3.418947E4,6.1584156E4,4.9500875E4,4.629375E4,3.0205E3,5.80225E3,6.273125E3,5.3660312E3,9.933281E3,6.4373984E3,1.2890258E4,1.0043881E4,1.2503718E4,1.1301129E4,1.0818969E4,1.8553625E4,1.0924422E4,2.846675E4,1.41819375E4,1.5400875E4,2.9805E3,0E0,2.531875E3,3.5626758E2,7.565625E2,4.2933125E3,2.2082969E3,5.9135205E2,6.2528125E3,8.1496875E2,3.7282969E3,2.5713223E3,2.4781484E3,4.462625E3,3.466455E3,3.3630898E3,3.73721E3,5.2127637E3,4.18404E3,3.8246523E3,9.044088E3,6.5481445E2,1.0316516E4,4.7970312E3,3.8152812E3,6.774578E3,5.7065938E3,8.38525E3,6.8508125E3,4.8231875E3,2.1998438E3,4.48625E3,0E0,0E0,0E0,0E0,0E0,0E0,0E0,0E0,0E0,0E0,0E0,0E0,0E0,0E0,0E0,0E0,0E0,0E0,0E0,0E0,0E0,0E0,0E0,0E0,0E0,0E0,0E0,0E0,0E0,0E0,0E0,0E0,0E0,0E0,0E0,0E0,0E0,0E0,0E0,0E0,0E0,0E0,0E0,0E0,0E0,0E0,0E0,0E0,0E0,0E0,0E0,0E0,0E0,0E0,0E0,0E0,0E0,0E0,0E0,0E0,0E0,0E0],"parents":[2147483647,0,0,1,1,2,2,3,3,4,4,5,5,6,6,7,7,8,8,9,9,10,10,11,11,12,12,13,13,14,14,15,15,16,16,17,17,18,18,19,19,20,20,21,21,22,22,23,23,24,24,25,25,26,26,27,27,28,28,29,29,30,30,31,31,33,33,34,34,35,35,36,36,37,37,38,38,39,39,40,40,41,41,42,42,43,43,44,44,45,45,46,46,47,47,48,48,49,49,50,50,51,51,52,52,53,53,54,54,55,55,56,56,57,57,58,58,59,59,60,60,61,61,62,62],"right_children":[2,4,6,8,10,12,14,16,18,20,22,24,26,28,30,32,34,36,38,40,42,44,46,48,50,52,54,56,58,60,62,64,-1,66,68,70,72,74,76,78,80,82,84,86,88,90,92,94,96,98,100,102,104,106,108,110,112,114,116,118,120,122,124,-1,-1,-1,-1,-1,-1,-1,-1,-1,-1,-1,-1,-1,-1,-1,-1,-1,-1,-1,-1,-1,-1,-1,-1,-1,-1,-1,-1,-1,-1,-1,-1,-1,-1,-1,-1,-1,-1,-1,-1,-1,-1,-1,-1,-1,-1,-1,-1,-1,-1,-1,-1,-1,-1,-1,-1,-1,-1,-1,-1,-1,-1],"split_conditions":[5.9E1,2.9E1,9E1,1.5E1,4.4E1,7.4E1,5.9117508E1,1.845239E1,2.0157494E1,1.8574926E1,1.8814787E1,5.8133892E1,5.5096287E1,5.15624E1,1.06E2,1.5E1,8E0,1.1665323E1,1.2E1,1E0,6.0099823E1,5.6103355E1,5.8883106E1,1.813645E1,1.998332E1,1.7E1,6.442126E1,1.01E2,1.03E2,6.442126E1,6.289954E1,1.1330847E1,-1.5967735E0,8E0,8E0,1E1,1.7E1,2.2E1,3.5E1,5.8060966E1,3E1,1.4E1,2.7191547E1,1.3455077E1,8E0,1.9E1,1E0,4.9837303E1,4.9710262E1,6.735087E1,3E0,1.7786816E1,1.08824625E1,1.8814787E1,1.6566874E1,2.1079466E1,1.7843716E1,2.0869183E1,1.7042679E1,1.7559816E1,2.2372025E1,2.0560009E1,7.034834E1,-2.4182456E0,-2.110054E0,-1.9292039E0,-1.6681204E0,-1.3839734E0,-9.7406846E-1,-1.9188789E0,-1.34319E0,-1.5504788E0,-8.5213584E-1,-1.3630041E0,-1.1067216E0,-6.923668E-1,-1.986287E-1,-1.3106519E0,-9.9313736E-1,-6.3809156E-1,-2.5164092E-1,-8.3090687E-1,-2.1469593E-1,-5.462972E-1,-1.2490975E-1,-9.424163E-1,-6.5530163E-1,-4.1170198E-1,1.9455306E-1,-3.236979E-1,4.3412858E-1,6.583074E-2,7.092668E-1,-5.0095534E-1,-1.4088683E-1,-1.196064E-1,3.0829713E-1,2.239464E-1,6.1324775E-1,6.6604716E-1,1.4244741E0,9.727615E-2,5.111416E-1,5.469102E-1,1.2668489E0,6.956206E-1,1.0870832E0,1.0777816E0,1.516378E0,4.9749765E-1,9.7417015E-1,8.836595E-1,1.3497891E0,1.0579798E0,1.4837784E0,1.4990096E0,1.895584E0,1.3650014E0,1.8274416E0,1.9456214E0,2.4789305E0,2.0067515E0,2.4524722E0,2.561978E0,3.1538594E0],"split_indices":[18,18,18,18,18,18,24,19,19,19,19,24,24,24,18,27,27,19,27,26,24,24,24,19,19,27,24,18,18,24,24,19,0,18,18,27,27,18,27,24,27,27,19,19,27,27,26,24,24,24,28,19,19,19,19,19,19,19,19,19,19,19,24,0,0,0,0,0,0,0,0,0,0,0,0,0,0,0,0,0,0,0,0,0,0,0,0,0,0,0,0,0,0,0,0,0,0,0,0,0,0,0,0,0,0,0,0,0,0,0,0,0,0,0,0,0,0,0,0,0,0,0,0,0,0],"split_type":[0,0,0,0,0,0,0,0,0,0,0,0,0,0,0,0,0,0,0,0,0,0,0,0,0,0,0,0,0,0,0,0,0,0,0,0,0,0,0,0,0,0,0,0,0,0,0,0,0,0,0,0,0,0,0,0,0,0,0,0,0,0,0,0,0,0,0,0,0,0,0,0,0,0,0,0,0,0,0,0,0,0,0,0,0,0,0,0,0,0,0,0,0,0,0,0,0,0,0,0,0,0,0,0,0,0,0,0,0,0,0,0,0,0,0,0,0,0,0,0,0,0,0,0,0],"sum_hessian":[1.1274E4,5.468E3,5.806E3,2.604E3,2.864E3,2.973E3,2.833E3,1.305E3,1.299E3,1.43E3,1.434E3,1.405E3,1.568E3,1.585E3,1.248E3,6.91E2,6.14E2,8.34E2,4.65E2,7.45E2,6.85E2,8.14E2,6.2E2,7.24E2,6.81E2,5.67E2,1.001E3,5.49E2,1.036E3,6.66E2,5.82E2,6.56E2,3.5E1,5.61E2,5.3E1,1.9E2,6.44E2,4.28E2,3.7E1,6.72E2,7.3E1,4.39E2,2.46E2,3.39E2,4.75E2,3.3E2,2.9E2,3.82E2,3.42E2,4.34E2,2.47E2,5.3E2,3.7E1,7.07E2,2.94E2,2.14E2,3.35E2,4.17E2,6.19E2,3.67E2,2.99E2,2.57E2,3.25E2,1.76E2,4.8E2,2.64E2,2.97E2,2.6E1,2.7E1,1.73E2,1.7E1,6.17E2,2.7E1,2.05E2,2.23E2,2.8E1,9E0,3.43E2,3.29E2,5.2E1,2.1E1,4.12E2,2.7E1,2.01E2,4.5E1,1.39E2,2E2,4.43E2,3.2E1,3.15E2,1.5E1,2.69E2,2.1E1,9.6E1,2.86E2,1E2,2.42E2,3.48E2,8.6E1,2.29E2,1.8E1,2.81E2,2.49E2,6E0,3.1E1,4.07E2,3E2,1.21E2,1.73E2,1.54E2,6E1,1.83E2,1.52E2,2.96E2,1.21E2,2.67E2,3.52E2,1.79E2,1.88E2,2.22E2,7.7E1,1.89E2,6.8E1,2.6E2,6.5E1],"tree_param":{"num_deleted":"0","num_feature":"34","num_nodes":"125","size_leaf_vector":"1"}},{"base_weights":[-8.720705E-4,-2.0386557E1,2.18601E1,-3.122011E1,-9.117634E0,1.23579855E1,3.3202625E1,-3.66143E1,-2.518819E1,-1.40901985E1,-3.3383393E0,5.3667374E0,1.701836E1,2.3150385E1,3.9539124E1,-4.2337708E1,-3.4851627E1,-3.1002302E1,-2.3517506E1,-1.9190826E1,-1.2193929E1,-6.3615346E0,3.3516526E0,2.5661457E-1,1.0347434E1,1.1864633E1,2.3302252E1,1.3784902E1,2.5830984E1,3.6377735E1,4.873746E1,-2.1932735E0,-3.7174587E1,-3.8232555E1,-3.1707268E1,-3.3175037E1,-2.6846416E1,-2.4336445E1,-1.1454439E1,-2.2976227E1,-1.6784557E1,-1.3788485E1,-5.90906E0,-1.0352103E1,-3.6769621E0,2.5413792E0,1.623973E1,-3.2367977E-1,1.7443409E1,1.6274183E0,1.2343704E1,1.0075478E1,2.0273794E1,1.9861044E1,2.9387367E1,6.783092E0,1.6222992E1,2.269603E1,3.1485054E1,3.231444E1,4.2644115E1,4.3206974E1,5.415586E1,-1.8980421E0,-1.1263446E0,-1.9432524E0,-1.4310921E0,-1.6306231E0,-9.666743E-1,-1.7014774E0,-1.0237335E0,-1.3889521E0,-9.509496E-1,-1.35898E0,-1.0936375E0,-7.39395E-1,-3.0566457E-1,-1.1734457E0,-4.525825E-1,-9.9949884E-1,-6.9606704E-1,-7.269234E-1,-1.4082594E-1,-4.6329305E-1,-1.0618211E-1,-8.55936E-1,-4.3811497E-1,-4.429474E-1,-8.078863E-2,-7.5088866E-2,2.2650576E-1,3.5155344E-1,9.456558E-1,-2.3792398E-1,8.609814E-2,1.0150604E0,3.9256534E-1,-2.1545005E-1,2.1915253E-1,5.646701E-1,1.4849528E0,2.7767265E-1,6.274297E-1,7.895844E-1,1.1495768E0,6.911358E-1,1.0784252E0,1.3534446E0,1.8625399E0,1.7018393E-1,5.813207E-1,5.509524E-1,9.3719256E-1,9.4275993E-1,1.2956287E0,1.1590607E0,1.6463383E0,1.0872438E0,1.6664807E0,2.0707808E0,2.848587E0,1.9298061E0,2.3373344E0,2.551674E0,3.080102E0],"categories":[],"categories_nodes":[],"categories_segments":[],"categories_sizes":[],"default_left":[0,0,0,0,0,0,0,0,0,0,0,0,0,0,0,0,0,0,0,0,0,0,0,0,0,0,0,0,0,0,0,0,0,0,0,0,0,0,0,0,0,0,0,0,0,0,0,0,0,0,0,0,0,0,0,0,0,0,0,0,0,0,0,0,0,0,0,0,0,0,0,0,0,0,0,0,0,0,0,0,0,0,0,0,0,0,0,0,0,0,0,0,0,0,0,0,0,0,0,0,0,0,0,0,0,0,0,0,0,0,0,0,0,0,0,0,0,0,0,0,0,0,0,0,0],"id":6,"left_children":[1,3,5,7,9,11,13,15,17,19,21,23,25,27,29,31,33,35,37,39,41,43,45,47,49,51,53,55,57,59,61,-1,63,65,67,69,71,73,75,77,79,81,83,85,87,89,91,93,95,97,99,101,103,105,107,109,111,113,115,117,119,121,123,-1,-1,-1,-1,-1,-1,-1,-1,-1,-1,-1,-1,-1,-1,-1,-1,-1,-1,-1,-1,-1,-1,-1,-1,-1,-1,-1,-1,-1,-1,-1,-1,-1,-1,-1,-1,-1,-1,-1,-1,-1,-1,-1,-1,-1,-1,-1,-1,-1,-1,-1,-1,-1,-1,-1,-1,-1,-1,-1,-1,-1,-1],"loss_changes":[4.977029E6,7.05226E5,5.804005E5,9.49265E4,8.139447E4,9.55015E4,1.55516E5,1.4184E4,1.2806125E4,1.44935625E4,2.6557021E4,2.9902352E4,5.6718438E4,2.3540031E4,4.198325E4,1.2088125E3,1.1463375E4,1.8845E3,1.04560625E4,3.3540312E3,1.10705625E4,9.645059E3,4.2279844E3,5.8019033E3,1.0335973E4,1.4371594E4,1.5996E4,3.5408672E3,1.2378969E4,2.7233875E4,9.0974375E3,0E0,1.6382031E2,2.3456875E3,6.3535E3,1.446625E3,2.7729688E2,6.5243125E3,1.1716279E3,8.6140625E2,2.058664E3,7.2562344E3,2.863648E3,3.752418E3,5.773771E3,3.1108442E3,4.5526514E2,5.116042E3,3.5862695E2,1.8510559E3,8.483031E3,8.886484E3,1.6916719E3,4.946203E3,4.1628906E3,8.9187695E2,1.8631914E3,5.4246094E3,2.3557188E3,6.6305E3,5.3576875E3,1.3534688E3,1.2391875E3,0E0,0E0,0E0,0E0,0E0,0E0,0E0,0E0,0E0,0E0,0E0,0E0,0E0,0E0,0E0,0E0,0E0,0E0,0E0,0E0,0E0,0E0,0E0,0E0,0E0,0E0,0E0,0E0,0E0,0E0,0E0,0E0,0E0,0E0,0E0,0E0,0E0,0E0,0E0,0E0,0E0,0E0,0E0,0E0,0E0,0E0,0E0,0E0,0E0,0E0,0E0,0E0,0E0,0E0,0E0,0E0,0E0,0E0,0E0,0E0,0E0,0E0],"parents":[2147483647,0,0,1,1,2,2,3,3,4,4,5,5,6,6,7,7,8,8,9,9,10,10,11,11,12,12,13,13,14,14,15,15,16,16,17,17,18,18,19,19,20,20,21,21,22,22,23,23,24,24,25,25,26,26,27,27,28,28,29,29,30,30,32,32,33,33,34,34,35,35,36,36,37,37,38,38,39,39,40,40,41,41,42,42,43,43,44,44,45,45,46,46,47,47,48,48,49,49,50,50,51,51,52,52,53,53,54,54,55,55,56,56,57,57,58,58,59,59,60,60,61,61,62,62],"right_children":[2,4,6,8,10,12,14,16,18,20,22,24,26,28,30,32,34,36,38,40,42,44,46,48,50,52,54,56,58,60,62,-1,64,66,68,70,72,74,76,78,80,82,84,86,88,90,92,94,96,98,100,102,104,106,108,110,112,114,116,118,120,122,124,-1,-1,-1,-1,-1,-1,-1,-1,-1,-1,-1,-1,-1,-1,-1,-1,-1,-1,-1,-1,-1,-1,-1,-1,-1,-1,-1,-1,-1,-1,-1,-1,-1,-1,-1,-1,-1,-1,-1,-1,-1,-1,-1,-1,-1,-1,-1,-1,-1,-1,-1,-1,-1,-1,-1,-1,-1,-1,-1,-1,-1,-1],"split_conditions":[6.3E1,3.3E1,9.4E1,1.8E1,4.9E1,5.6103355E1,5.594358E1,8.6802435E-1,8.37608E-1,9.0579915E-1,6.1450348E1,7.9E1,8E1,4.794865E1,6.5599014E1,1.4E1,9E0,5.986935E1,1.4E1,5.501108E1,6.3744534E1,5.354048E1,1.5E1,2.1E1,4.7187706E1,6.735087E1,6.3647907E1,4.3136322E1,1.11E2,1.1E2,1.07E2,-2.1932735E0,6E0,8E0,1.6E1,1E1,3.1E1,2.5E1,2.9E1,5E0,4E1,1.2E1,4.1E1,7.6375544E-1,9.158317E-1,1.0344461E0,8.92007E-1,9.474589E-1,1.5E1,4.3136322E1,2.3E1,6.9E1,1.0743204E0,8.4899443E-1,7.062518E1,1.3169882E0,1.02E2,1.1439556E0,7.502167E-1,5.6793594E-1,1.5E1,6.210383E1,7.093501E1,-1.8980421E0,-1.1263446E0,-1.9432524E0,-1.4310921E0,-1.6306231E0,-9.666743E-1,-1.7014774E0,-1.0237335E0,-1.3889521E0,-9.509496E-1,-1.35898E0,-1.0936375E0,-7.39395E-1,-3.0566457E-1,-1.1734457E0,-4.525825E-1,-9.9949884E-1,-6.9606704E-1,-7.269234E-1,-1.4082594E-1,-4.6329305E-1,-1.0618211E-1,-8.55936E-1,-4.3811497E-1,-4.429474E-1,-8.078863E-2,-7.5088866E-2,2.2650576E-1,3.5155344E-1,9.456558E-1,-2.3792398E-1,8.609814E-2,1.0150604E0,3.9256534E-1,-2.1545005E-1,2.1915253E-1,5.646701E-1,1.4849528E0,2.7767265E-1,6.274297E-1,7.895844E-1,1.1495768E0,6.911358E-1,1.0784252E0,1.3534446E0,1.8625399E0,1.7018393E-1,5.813207E-1,5.509524E-1,9.3719256E-1,9.4275993E-1,1.2956287E0,1.1590607E0,1.6463383E0,1.0872438E0,1.6664807E0,2.0707808E0,2.848587E0,1.9298061E0,2.3373344E0,2.551674E0,3.080102E0],"split_indices":[18,18,18,18,18,24,24,33,33,33,24,18,18,24,24,18,18,24,27,24,24,24,27,27,24,24,24,24,18,18,18,0,27,27,27,27,18,18,27,28,18,27,18,33,33,33,33,33,21,24,27,18,33,33,24,33,18,33,33,33,27,23,24,0,0,0,0,0,0,0,0,0,0,0,0,0,0,0,0,0,0,0,0,0,0,0,0,0,0,0,0,0,0,0,0,0,0,0,0,0,0,0,0,0,0,0,0,0,0,0,0,0,0,0,0,0,0,0,0,0,0,0,0,0,0],"split_type":[0,0,0,0,0,0,0,0,0,0,0,0,0,0,0,0,0,0,0,0,0,0,0,0,0,0,0,0,0,0,0,0,0,0,0,0,0,0,0,0,0,0,0,0,0,0,0,0,0,0,0,0,0,0,0,0,0,0,0,0,0,0,0,0,0,0,0,0,0,0,0,0,0,0,0,0,0,0,0,0,0,0,0,0,0,0,0,0,0,0,0,0,0,0,0,0,0,0,0,0,0,0,0,0,0,0,0,0,0,0,0,0,0,0,0,0,0,0,0,0,0,0,0,0,0],"sum_hessian":[1.1166E4,5.778E3,5.388E3,2.945E3,2.833E3,2.933E3,2.455E3,1.552E3,1.393E3,1.522E3,1.311E3,1.174E3,1.759E3,9.51E2,1.504E3,3.6E2,1.192E3,3.07E2,1.086E3,4.1E2,1.112E3,9.03E2,4.08E2,5.8E2,5.94E2,9.68E2,7.91E2,2.13E2,7.38E2,1.123E3,3.81E2,2.72E2,8.8E1,5.69E2,6.23E2,1.97E2,1.1E2,1.016E3,7E1,1.56E2,2.54E2,8.86E2,2.26E2,3.62E2,5.41E2,3.85E2,2.3E1,5.62E2,1.8E1,1.11E2,4.83E2,8E2,1.68E2,5.08E2,2.83E2,5.6E1,1.57E2,4.78E2,2.6E2,6.85E2,4.38E2,1.93E2,1.88E2,8.2E1,6E0,5.31E2,3.8E1,5.79E2,4.4E1,1.83E2,1.4E1,9.6E1,1.4E1,4.67E2,5.49E2,4.2E1,2.8E1,1.5E2,6E0,1.17E2,1.37E2,8.29E2,5.7E1,1.19E2,1.07E2,6.7E1,2.95E2,1.53E2,3.88E2,1.27E2,2.58E2,6E0,1.7E1,1.77E2,3.85E2,1.3E1,5E0,3.5E1,7.6E1,4.57E2,2.6E1,2.84E2,5.16E2,6.6E1,1.02E2,1.14E2,3.94E2,2.22E2,6.1E1,3.4E1,2.2E1,5.3E1,1.04E2,2.21E2,2.57E2,4.1E1,2.19E2,6.2E1,6.23E2,4.07E2,3.1E1,8.9E1,1.04E2,1.38E2,5E1],"tree_param":{"num_deleted":"0","num_feature":"34","num_nodes":"125","size_leaf_vector":"1"}},{"base_weights":[-1.6114743E-1,-3.9634936E0,5.7100606E0,-5.909454E0,2.6610339E0,3.5858262E0,1.4994912E1,-1.3515171E1,-4.6132445E0,-7.624927E0,4.102663E0,1.4618231E0,8.927496E0,1.2183162E1,2.2693607E1,-1.4638022E1,1.3053899E0,-1.0763719E1,-3.130151E0,-1.0378683E1,-2.1256664E0,3.156991E0,1.4320496E1,-4.04101E0,2.8683627E0,7.307124E0,1.7081408E1,1.0413582E1,1.7480797E1,2.4974855E1,8.050067E0,-1.7202354E1,-1.1750333E1,-4.9014716E0,1.6747206E1,-1.1559999E1,-1.8448964E0,-3.8389025E0,8.053994E0,-1.2192521E1,1.2769198E0,2.3647172E0,-1.1014358E1,1.6931175E0,8.5748415E0,9.844188E0,2.4692163E1,4.4164844E0,-5.944124E0,2.2431574E0,1.0958826E1,3.6375113E0,9.72965E0,5.8000183E0,2.1638807E1,1.3660381E1,5.358711E0,1.2392954E1,2.6556793E1,1.518812E1,2.974689E1,1.3645146E1,-6.534041E-1,-9.4224674E-1,-6.475453E-1,-7.4088377E-1,-4.3247828E-1,-7.318103E-1,-7.999487E-2,2.799804E-1,1.0648075E0,-7.305935E-1,-5.016125E-1,-3.1792942E-1,4.1197944E-1,-2.864958E-1,-7.509487E-2,3.0465275E-1,7.002478E-1,-9.758677E-1,-4.105602E-1,-7.180738E-1,4.202054E-1,-6.249265E-1,2.758592E-1,7.213151E-2,-7.8910714E-1,-2.6421636E-2,2.1309726E-1,2.8301E-1,6.551556E-1,8.6544216E-2,8.0769634E-1,-1.4414795E-1,1.5353826E0,-6.054703E-1,4.1682133E-1,-1.7206351E-1,-6.629731E-1,2.4316294E-2,2.4239515E-1,-2.1169122E-1,6.4894474E-1,5.3016037E-1,1.8841727E-2,7.5472105E-1,2.8860503E-1,1.2216827E0,5.5566337E-2,-9.318508E-2,1.2380719E0,7.670049E-1,6.0061283E-2,1.7003566E-1,1.1963265E0,1.9986404E-1,9.4411737E-1,7.229958E-1,1.7020186E0,2.0474067E0,5.387558E-1,1.2277254E0,2.10215E0,7.407622E-2,1.1544656E0],"categories":[],"categories_nodes":[],"categories_segments":[],"categories_sizes":[],"default_left":[0,0,0,0,0,0,0,0,0,0,0,0,0,0,0,0,0,0,0,0,0,0,0,0,0,0,0,0,0,0,0,0,0,0,0,0,0,0,0,0,0,0,0,0,0,0,0,0,0,0,0,0,0,0,0,0,0,0,0,0,0,0,0,0,0,0,0,0,0,0,0,0,0,0,0,0,0,0,0,0,0,0,0,0,0,0,0,0,0,0,0,0,0,0,0,0,0,0,0,0,0,0,0,0,0,0,0,0,0,0,0,0,0,0,0,0,0,0,0,0,0,0,0,0,0],"id":7,"left_children":[1,3,5,7,9,11,13,15,17,19,21,23,25,27,29,31,33,35,37,39,41,43,45,47,49,51,53,55,57,59,61,63,65,67,69,71,73,75,77,79,81,83,85,87,89,91,93,95,97,99,101,103,105,107,109,111,113,115,117,119,121,123,-1,-1,-1,-1,-1,-1,-1,-1,-1,-1,-1,-1,-1,-1,-1,-1,-1,-1,-1,-1,-1,-1,-1,-1,-1,-1,-1,-1,-1,-1,-1,-1,-1,-1,-1,-1,-1,-1,-1,-1,-1,-1,-1,-1,-1,-1,-1,-1,-1,-1,-1,-1,-1,-1,-1,-1,-1,-1,-1,-1,-1,-1,-1],"loss_changes":[2.5114922E5,8.803626E4,8.7160375E4,5.196953E4,2.303E4,4.0830516E4,1.7535344E4,1.2800953E4,4.111303E4,2.86912E3,1.3104004E4,1.9957328E4,1.3402211E4,5.4868047E3,7.1114766E3,5.082125E3,5.354758E3,6.198586E3,2.8852262E4,2.7016152E3,2.621297E3,9.874472E3,5.0925527E3,8.476582E3,1.0358584E4,7.572875E3,8.5606875E3,7.408836E3,6.593574E3,8.370492E3,3.8412627E3,2.3784922E3,3.0937578E3,1.2605577E3,6.894175E2,3.5995938E3,3.375037E3,1.5104703E4,2.4449326E3,3.0448398E3,2.12634E3,2.1299175E3,1.330831E3,5.6123906E3,3.421502E3,4.1680635E3,5.731158E3,6.384283E3,7.8073564E3,8.72373E3,4.5672812E3,7.7627114E3,1.0844926E4,4.3386597E3,8.855199E3,5.7769336E3,6.4599346E3,5.2615527E3,4.30091E3,6.8290654E3,7.0056094E3,2.8352168E3,0E0,0E0,0E0,0E0,0E0,0E0,0E0,0E0,0E0,0E0,0E0,0E0,0E0,0E0,0E0,0E0,0E0,0E0,0E0,0E0,0E0,0E0,0E0,0E0,0E0,0E0,0E0,0E0,0E0,0E0,0E0,0E0,0E0,0E0,0E0,0E0,0E0,0E0,0E0,0E0,0E0,0E0,0E0,0E0,0E0,0E0,0E0,0E0,0E0,0E0,0E0,0E0,0E0,0E0,0E0,0E0,0E0,0E0,0E0,0E0,0E0,0E0,0E0],"parents":[2147483647,0,0,1,1,2,2,3,3,4,4,5,5,6,6,7,7,8,8,9,9,10,10,11,11,12,12,13,13,14,14,15,15,16,16,17,17,18,18,19,19,20,20,21,21,22,22,23,23,24,24,25,25,26,26,27,27,28,28,29,29,30,30,31,31,32,32,33,33,34,34,35,35,36,36,37,37,38,38,39,39,40,40,41,41,42,42,43,43,44,44,45,45,46,46,47,47,48,48,49,49,50,50,51,51,52,52,53,53,54,54,55,55,56,56,57,57,58,58,59,59,60,60,61,61],"right_children":[2,4,6,8,10,12,14,16,18,20,22,24,26,28,30,32,34,36,38,40,42,44,46,48,50,52,54,56,58,60,62,64,66,68,70,72,74,76,78,80,82,84,86,88,90,92,94,96,98,100,102,104,106,108,110,112,114,116,118,120,122,124,-1,-1,-1,-1,-1,-1,-1,-1,-1,-1,-1,-1,-1,-1,-1,-1,-1,-1,-1,-1,-1,-1,-1,-1,-1,-1,-1,-1,-1,-1,-1,-1,-1,-1,-1,-1,-1,-1,-1,-1,-1,-1,-1,-1,-1,-1,-1,-1,-1,-1,-1,-1,-1,-1,-1,-1,-1,-1,-1,-1,-1,-1,-1],"split_conditions":[5.9944218E1,2.2508257E1,2.3467426E1,1.0628318E1,4.736247E1,6.672758E1,6.735087E1,1E0,4.899021E1,2.6003283E1,1E0,1.2262652E1,7.3257454E1,1.6E1,1.7364047E9,5.436486E1,5.571924E1,2E0,3E0,1.8788887E1,1E0,2.7809624E1,2.0907533E0,6.75105E-1,1E0,1.4891928E1,8.9687955E-1,1.7361716E9,2.7191547E1,6.188372E1,1E0,3E0,8.374521E0,3.3519545E-1,4.978331E1,1.5222125E1,1.1E1,5.5787697E1,1E0,9.3532544E-1,4.449365E1,4.2398785E1,8.967734E-1,5.501108E1,1.6283175E1,1.031377E0,8.4443245E0,4.3935338E-1,1.7573086E1,1.875844E1,1.0113723E1,1.7359555E9,1.2068568E0,7E0,6.3774407E-1,1.1609701E0,2E0,1.1119097E0,1.7360244E9,1.4141182E0,1.5E1,1.736454E9,-6.534041E-1,-9.4224674E-1,-6.475453E-1,-7.4088377E-1,-4.3247828E-1,-7.318103E-1,-7.999487E-2,2.799804E-1,1.0648075E0,-7.305935E-1,-5.016125E-1,-3.1792942E-1,4.1197944E-1,-2.864958E-1,-7.509487E-2,3.0465275E-1,7.002478E-1,-9.758677E-1,-4.105602E-1,-7.180738E-1,4.202054E-1,-6.249265E-1,2.758592E-1,7.213151E-2,-7.8910714E-1,-2.6421636E-2,2.1309726E-1,2.8301E-1,6.551556E-1,8.6544216E-2,8.0769634E-1,-1.4414795E-1,1.5353826E0,-6.054703E-1,4.1682133E-1,-1.7206351E-1,-6.629731E-1,2.4316294E-2,2.4239515E-1,-2.1169122E-1,6.4894474E-1,5.3016037E-1,1.8841727E-2,7.5472105E-1,2.8860503E-1,1.2216827E0,5.5566337E-2,-9.318508E-2,1.2380719E0,7.670049E-1,6.0061283E-2,1.7003566E-1,1.1963265E0,1.9986404E-1,9.4411737E-1,7.229958E-1,1.7020186E0,2.0474067E0,5.387558E-1,1.2277254E0,2.10215E0,7.407622E-2,1.1544656E0],"split_indices":[24,19,19,19,24,24,24,26,24,19,26,19,24,21,16,24,24,28,28,32,8,19,33,31,26,19,33,16,19,23,22,30,19,33,23,19,21,24,10,25,24,23,25,24,32,25,32,33,32,19,32,16,33,21,31,25,22,25,16,33,21,16,0,0,0,0,0,0,0,0,0,0,0,0,0,0,0,0,0,0,0,0,0,0,0,0,0,0,0,0,0,0,0,0,0,0,0,0,0,0,0,0,0,0,0,0,0,0,0,0,0,0,0,0,0,0,0,0,0,0,0,0,0,0,0],"split_type":[0,0,0,0,0,0,0,0,0,0,0,0,0,0,0,0,0,0,0,0,0,0,0,0,0,0,0,0,0,0,0,0,0,0,0,0,0,0,0,0,0,0,0,0,0,0,0,0,0,0,0,0,0,0,0,0,0,0,0,0,0,0,0,0,0,0,0,0,0,0,0,0,0,0,0,0,0,0,0,0,0,0,0,0,0,0,0,0,0,0,0,0,0,0,0,0,0,0,0,0,0,0,0,0,0,0,0,0,0,0,0,0,0,0,0,0,0,0,0,0,0,0,0,0,0],"sum_hessian":[1.1248E4,6.827E3,4.421E3,5.277E3,1.55E3,3.599E3,8.22E2,7.67E2,4.51E3,1.9E2,1.36E3,2.576E3,1.023E3,6.04E2,2.18E2,7.13E2,5.4E1,8.75E2,3.635E3,1.26E2,6.4E1,1.246E3,1.14E2,5.24E2,2.052E3,8.55E2,1.68E2,4.55E2,1.49E2,1.88E2,3E1,3.75E2,3.38E2,3.9E1,1.5E1,8.03E2,7.2E1,3.419E3,2.16E2,1.09E2,1.7E1,4.3E1,2.1E1,9.82E2,2.64E2,8.1E1,3.3E1,9.6E1,4.28E2,1.906E3,1.46E2,3.41E2,5.14E2,4.9E1,1.19E2,2.76E2,1.79E2,9.7E1,5.2E1,6.3E1,1.25E2,2.4E1,6E0,2.68E2,1.07E2,1.68E2,1.7E2,9E0,3E1,5E0,1E1,2.65E2,5.38E2,5E1,2.2E1,1.889E3,1.53E3,1.64E2,5.2E1,3.7E1,7.2E1,5E0,1.2E1,7E0,3.6E1,6E0,1.5E1,5.27E2,4.55E2,1.62E2,1.02E2,3.6E1,4.5E1,6E0,2.7E1,1.8E1,7.8E1,3.2E2,1.08E2,1.139E3,7.67E2,1.7E1,1.29E2,1.08E2,2.33E2,2.17E2,2.97E2,9E0,4E1,1.4E1,1.05E2,2.43E2,3.3E1,1.63E2,1.6E1,4.3E1,5.4E1,2.1E1,3.1E1,8E0,5.5E1,9E1,3.5E1,1.1E1,1.3E1],"tree_param":{"num_deleted":"0","num_feature":"34","num_nodes":"125","size_leaf_vector":"1"}},{"base_weights":[-3.799663E-2,-2.1039736E1,1.8983913E1,-3.078955E1,-1.1336619E1,8.262643E0,2.9253908E1,-3.6044395E1,-2.6331558E1,-1.5524824E1,-6.360204E0,2.8672457E0,1.2755211E1,2.3533428E1,3.542455E1,-3.890906E1,-3.3236664E1,-3.0714342E1,-2.4233755E1,-1.6303295E1,-5.3671017E0,-7.1548386E0,6.8634043E0,-1.3532367E0,6.5879474E0,9.497954E0,1.8674623E1,1.725675E1,2.7898748E1,2.88182E1,4.03563E1,-3.937685E1,-1.274898E0,-3.4048923E1,-2.3660719E1,-3.395819E1,-2.8299355E1,-2.500022E1,-1.4899324E1,-2.0178228E1,-1.42038965E1,-1.0482702E1,-3.3694458E0,-1.0284911E1,-4.281806E0,2.0553126E0,1.1344509E1,-7.550104E0,2.8743783E-1,5.5760937E0,2.0806479E1,6.472714E0,1.3124494E1,1.5282635E1,2.2475534E1,1.083273E1,1.962541E1,2.2892855E1,3.2077736E1,2.2847652E1,3.104928E1,3.4917816E1,4.4107857E1,-2.086324E0,-1.8655624E0,-1.8484977E0,-1.60311E0,-1.2818794E0,-8.534303E-1,-1.7197863E0,-8.7021315E-1,-1.5539454E0,-1.3196546E0,-1.3905824E0,-1.1154685E0,-9.1284657E-1,-5.172857E-1,-1.1973222E0,-8.886501E-1,-8.5790026E-1,-5.7982373E-1,-7.0619035E-1,-2.4536021E-1,-2.813621E-1,-5.1134493E-2,-5.896204E-1,-2.6934075E-1,-3.469156E-1,-8.7393984E-2,-1.8700017E-2,3.375498E-1,2.1382986E-1,6.4498204E-1,-5.4549515E-1,-2.5690818E-1,-2.4067394E-1,9.188084E-2,1.4769864E-1,4.335165E-1,5.8073735E-1,1.1362846E0,1.6037838E-1,4.7886592E-1,6.1766624E-1,1.2316419E0,4.733635E-1,8.529696E-1,9.4991094E-1,1.3201115E0,1.22491755E-1,6.6002446E-1,7.430861E-1,1.1112933E0,8.9824563E-1,1.2809224E0,1.1683897E0,1.7294654E0,7.876717E-1,1.2330564E0,1.4424689E0,1.8832978E0,1.5905088E0,1.9509643E0,1.9976634E0,2.3990705E0],"categories":[],"categories_nodes":[],"categories_segments":[],"categories_sizes":[],"default_left":[0,0,0,0,0,0,0,0,0,0,0,0,0,0,0,0,0,0,0,0,0,0,0,0,0,0,0,0,0,0,0,0,0,0,0,0,0,0,0,0,0,0,0,0,0,0,0,0,0,0,0,0,0,0,0,0,0,0,0,0,0,0,0,0,0,0,0,0,0,0,0,0,0,0,0,0,0,0,0,0,0,0,0,0,0,0,0,0,0,0,0,0,0,0,0,0,0,0,0,0,0,0,0,0,0,0,0,0,0,0,0,0,0,0,0,0,0,0,0,0,0,0,0,0,0],"id":8,"left_children":[1,3,5,7,9,11,13,15,17,19,21,23,25,27,29,31,33,35,37,39,41,43,45,47,49,51,53,55,57,59,61,63,-1,65,67,69,71,73,75,77,79,81,83,85,87,89,91,93,95,97,99,101,103,105,107,109,111,113,115,117,119,121,123,-1,-1,-1,-1,-1,-1,-1,-1,-1,-1,-1,-1,-1,-1,-1,-1,-1,-1,-1,-1,-1,-1,-1,-1,-1,-1,-1,-1,-1,-1,-1,-1,-1,-1,-1,-1,-1,-1,-1,-1,-1,-1,-1,-1,-1,-1,-1,-1,-1,-1,-1,-1,-1,-1,-1,-1,-1,-1,-1,-1,-1,-1],"loss_changes":[4.490304E6,5.05019E5,6.49168E5,6.14515E4,5.5735406E4,6.994041E4,1.05481E5,8.51225E3,1.25358125E4,1.1407844E4,1.2931871E4,2.0627682E4,3.0187453E4,4.2421938E4,4.5974625E4,2.741125E3,4.0343125E3,2.6676875E3,6.6493125E3,1.0692219E4,1.036311E3,1.0359172E4,1.483533E3,6.265795E3,9.92352E3,1.1081719E4,6.846828E3,9.598875E3,1.8548E4,7.5707188E3,1.5304625E4,1.2308125E3,0E0,2.1273125E3,2.357832E2,7.940781E2,6.1521875E2,6.2285625E3,9.855293E2,3.8481562E3,6.56875E3,5.1751685E2,4.0156427E2,4.0180352E3,4.059495E3,4.0241757E2,3.3881104E2,9.8770654E2,3.8673267E3,5.2713164E3,5.440918E2,5.6143027E3,3.7922031E3,2.9149297E3,3.0576719E3,3.4594648E3,5.48825E3,5.2169688E3,1.012375E4,1.8331406E3,5.4569375E3,3.1108125E3,5.8793125E3,0E0,0E0,0E0,0E0,0E0,0E0,0E0,0E0,0E0,0E0,0E0,0E0,0E0,0E0,0E0,0E0,0E0,0E0,0E0,0E0,0E0,0E0,0E0,0E0,0E0,0E0,0E0,0E0,0E0,0E0,0E0,0E0,0E0,0E0,0E0,0E0,0E0,0E0,0E0,0E0,0E0,0E0,0E0,0E0,0E0,0E0,0E0,0E0,0E0,0E0,0E0,0E0,0E0,0E0,0E0,0E0,0E0,0E0,0E0,0E0,0E0,0E0],"parents":[2147483647,0,0,1,1,2,2,3,3,4,4,5,5,6,6,7,7,8,8,9,9,10,10,11,11,12,12,13,13,14,14,15,15,16,16,17,17,18,18,19,19,20,20,21,21,22,22,23,23,24,24,25,25,26,26,27,27,28,28,29,29,30,30,31,31,33,33,34,34,35,35,36,36,37,37,38,38,39,39,40,40,41,41,42,42,43,43,44,44,45,45,46,46,47,47,48,48,49,49,50,50,51,51,52,52,53,53,54,54,55,55,56,56,57,57,58,58,59,59,60,60,61,61,62,62],"right_children":[2,4,6,8,10,12,14,16,18,20,22,24,26,28,30,32,34,36,38,40,42,44,46,48,50,52,54,56,58,60,62,64,-1,66,68,70,72,74,76,78,80,82,84,86,88,90,92,94,96,98,100,102,104,106,108,110,112,114,116,118,120,122,124,-1,-1,-1,-1,-1,-1,-1,-1,-1,-1,-1,-1,-1,-1,-1,-1,-1,-1,-1,-1,-1,-1,-1,-1,-1,-1,-1,-1,-1,-1,-1,-1,-1,-1,-1,-1,-1,-1,-1,-1,-1,-1,-1,-1,-1,-1,-1,-1,-1,-1,-1,-1,-1,-1,-1,-1,-1,-1,-1,-1,-1,-1],"split_conditions":[5.8E1,3E1,8.8E1,1.4E1,4.5E1,7.2E1,5.5492252E1,1.2027892E0,9.813465E-1,1.2E1,1.5E1,5.469332E1,5.7201363E1,1.01E2,1.02E2,2.2E1,8E0,2E1,7E0,1.0344461E0,9.017163E-1,1.1627241E0,5.670595E1,8.2652265E-1,1.2E1,1.0634898E0,1.0548582E0,9.9847233E-1,1.0533526E0,1.0061388E0,1.0322101E0,7E0,-1.274898E0,6E0,3E1,2.4E1,6.7445517E-1,2.2E1,2.5E1,3.6E1,3.7E1,3.7E1,2.6E1,5.8691723E1,5.543622E1,5.3E1,2.2E1,1.0234327E0,4.7798313E1,1.0634898E0,9.356533E-1,5.1946846E1,1E1,8.7832063E-1,8.1E1,4.7690327E1,9.949137E-1,5.004631E1,4.7798313E1,7.6973176E-1,6.252653E1,1.13E2,5.9543293E1,-2.086324E0,-1.8655624E0,-1.8484977E0,-1.60311E0,-1.2818794E0,-8.534303E-1,-1.7197863E0,-8.7021315E-1,-1.5539454E0,-1.3196546E0,-1.3905824E0,-1.1154685E0,-9.1284657E-1,-5.172857E-1,-1.1973222E0,-8.886501E-1,-8.5790026E-1,-5.7982373E-1,-7.0619035E-1,-2.4536021E-1,-2.813621E-1,-5.1134493E-2,-5.896204E-1,-2.6934075E-1,-3.469156E-1,-8.7393984E-2,-1.8700017E-2,3.375498E-1,2.1382986E-1,6.4498204E-1,-5.4549515E-1,-2.5690818E-1,-2.4067394E-1,9.188084E-2,1.4769864E-1,4.335165E-1,5.8073735E-1,1.1362846E0,1.6037838E-1,4.7886592E-1,6.1766624E-1,1.2316419E0,4.733635E-1,8.529696E-1,9.4991094E-1,1.3201115E0,1.22491755E-1,6.6002446E-1,7.430861E-1,1.1112933E0,8.9824563E-1,1.2809224E0,1.1683897E0,1.7294654E0,7.876717E-1,1.2330564E0,1.4424689E0,1.8832978E0,1.5905088E0,1.9509643E0,1.9976634E0,2.3990705E0],"split_indices":[18,18,18,18,18,18,23,33,33,27,27,23,23,18,18,27,27,18,27,33,33,33,23,33,27,25,25,25,25,25,25,18,0,18,27,27,33,18,27,18,18,18,27,23,23,18,27,25,23,25,33,23,27,33,18,23,33,23,23,33,23,18,23,0,0,0,0,0,0,0,0,0,0,0,0,0,0,0,0,0,0,0,0,0,0,0,0,0,0,0,0,0,0,0,0,0,0,0,0,0,0,0,0,0,0,0,0,0,0,0,0,0,0,0,0,0,0,0,0,0,0,0,0,0,0],"split_type":[0,0,0,0,0,0,0,0,0,0,0,0,0,0,0,0,0,0,0,0,0,0,0,0,0,0,0,0,0,0,0,0,0,0,0,0,0,0,0,0,0,0,0,0,0,0,0,0,0,0,0,0,0,0,0,0,0,0,0,0,0,0,0,0,0,0,0,0,0,0,0,0,0,0,0,0,0,0,0,0,0,0,0,0,0,0,0,0,0,0,0,0,0,0,0,0,0,0,0,0,0,0,0,0,0,0,0,0,0,0,0,0,0,0,0,0,0,0,0,0,0,0,0,0,0],"sum_hessian":[1.1238E4,5.341E3,5.897E3,2.663E3,2.678E3,2.886E3,3.011E3,1.219E3,1.444E3,1.453E3,1.225E3,1.312E3,1.574E3,1.565E3,1.446E3,5.97E2,6.22E2,4.63E2,9.81E2,1.349E3,1.04E2,1.156E3,6.9E1,6.15E2,6.97E2,1.017E3,5.57E2,6.44E2,9.21E2,6.21E2,8.25E2,5.75E2,2.2E1,5.71E2,5.1E1,1.92E2,2.71E2,9.05E2,7.6E1,4.71E2,8.78E2,2.8E1,7.6E1,5.52E2,6.04E2,3.4E1,3.5E1,1.28E2,4.87E2,6.52E2,4.5E1,5.56E2,4.61E2,2.97E2,2.6E2,1.75E2,4.69E2,4.22E2,4.99E2,1.72E2,4.49E2,3.41E2,4.84E2,2.6E2,3.15E2,2.24E2,3.47E2,3.7E1,1.4E1,1.86E2,6E0,1.04E2,1.67E2,4.38E2,4.67E2,4.2E1,3.4E1,1.8E2,2.91E2,4.09E2,4.69E2,1.6E1,1.2E1,3.8E1,3.8E1,4.21E2,1.31E2,2.94E2,3.1E2,2.3E1,1.1E1,7E0,2.8E1,5.2E1,7.6E1,1.13E2,3.74E2,3.54E2,2.98E2,9E0,3.6E1,2.72E2,2.84E2,4.34E2,2.7E1,7.1E1,2.26E2,1.41E2,1.19E2,3.9E1,1.36E2,1.68E2,3.01E2,1.53E2,2.69E2,1.14E2,3.85E2,3.7E1,1.35E2,3.41E2,1.08E2,1.99E2,1.42E2,2.39E2,2.45E2],"tree_param":{"num_deleted":"0","num_feature":"34","num_nodes":"125","size_leaf_vector":"1"}},{"base_weights":[5.000779E-2,-1.8078878E1,2.0094576E1,-2.8382746E1,-8.2857065E0,1.2127352E1,3.0714502E1,-3.2970585E1,-2.3005215E1,-1.2826745E1,-2.4976935E0,5.690037E0,1.6310734E1,2.2703068E1,3.7092957E1,-3.6276875E1,-2.936128E1,-2.5763248E1,-1.8356243E1,-1.58256855E1,-8.78666E0,-5.138885E0,3.0879169E0,1.4412805E0,1.0237509E1,1.0854733E1,2.1784536E1,1.5604376E1,2.552276E1,3.4593304E1,4.6007057E1,-3.8603657E1,-3.293163E1,-2.9844748E1,-7.7246493E-1,-2.620525E1,-1.17090225E1,-1.9165407E1,-5.17203E0,-1.9092339E1,-1.334542E1,-1.1452395E1,-5.880212E0,-7.719403E0,-2.744013E-1,-1.200276E0,6.4485545E0,-1.1070218E0,6.422285E0,9.155593E0,1.363797E0,5.906243E0,1.3936966E1,1.9654531E1,2.8605736E1,1.08174E1,1.8871819E1,2.2683256E1,3.072825E1,3.11759E1,4.037806E1,4.198673E1,5.1199627E1,-1.9525007E0,-1.180149E0,-1.856953E0,-1.564093E0,-1.5618261E0,-1.2840298E0,-1.429731E0,-1.1890125E0,-6.7760235E-1,-2.8126678E-1,-1.0202217E0,-7.602691E-1,-4.3529874E-1,5.5639944E-3,-9.988276E-1,-4.4593439E-1,-9.111144E-1,-5.64784E-1,-6.7274314E-1,-3.9168426E-1,-4.7931024E-1,-1.6785215E-1,-6.670751E-1,-3.124559E-1,-4.9415868E-2,6.104195E-1,-1.3950491E-1,2.1116562E-1,2.6838455E-1,9.338023E-1,-8.6505E-2,6.293708E-1,2.6887062E-1,8.9812326E-1,1.9584613E-1,6.0430723E-1,2.5762722E-1,8.839707E-1,5.8363295E-1,9.818684E-1,8.054779E-1,1.1679943E0,1.1916561E0,1.6009859E0,1.0238593E-1,6.1719674E-1,5.1433516E-1,1.0034856E0,8.0425245E-1,1.2254473E0,1.2609327E0,1.6618445E0,1.2956923E0,1.681405E0,1.9169453E0,2.4359548E0,1.8431053E0,2.2829802E0,2.0020304E0,2.6428277E0],"categories":[],"categories_nodes":[],"categories_segments":[],"categories_sizes":[],"default_left":[0,0,0,0,0,0,0,0,0,0,0,0,0,0,0,0,0,0,0,0,0,0,0,0,0,0,0,0,0,0,0,0,0,0,0,0,0,0,0,0,0,0,0,0,0,0,0,0,0,0,0,0,0,0,0,0,0,0,0,0,0,0,0,0,0,0,0,0,0,0,0,0,0,0,0,0,0,0,0,0,0,0,0,0,0,0,0,0,0,0,0,0,0,0,0,0,0,0,0,0,0,0,0,0,0,0,0,0,0,0,0,0,0,0,0,0,0,0,0,0,0,0,0],"id":9,"left_children":[1,3,5,7,9,11,13,15,17,19,21,23,25,27,29,31,33,35,37,39,41,43,45,47,49,51,53,55,57,59,61,63,65,67,-1,69,71,73,75,77,79,81,83,85,87,89,91,93,95,97,-1,99,101,103,105,107,109,111,113,115,117,119,121,-1,-1,-1,-1,-1,-1,-1,-1,-1,-1,-1,-1,-1,-1,-1,-1,-1,-1,-1,-1,-1,-1,-1,-1,-1,-1,-1,-1,-1,-1,-1,-1,-1,-1,-1,-1,-1,-1,-1,-1,-1,-1,-1,-1,-1,-1,-1,-1,-1,-1,-1,-1,-1,-1,-1,-1,-1,-1,-1,-1],"loss_changes":[4.062289E6,5.920884E5,4.4882475E5,6.979575E4,7.910631E4,8.163678E4,1.154055E5,1.731775E4,1.644775E4,2.0298125E4,1.9563355E4,2.3111426E4,5.4682156E4,1.9833938E4,2.6587375E4,4.9485E3,4.5250625E3,4.8204375E3,5.179203E3,7.5767656E3,5.5171094E3,1.129468E4,6.1473774E3,7.8773667E3,1.0401566E4,1.3993664E4,1.27561875E4,4.328828E3,9.969531E3,1.8344625E4,3.5609375E3,2.1921875E3,1.1567188E3,3.34175E3,0E0,3.9501875E3,2.2458179E2,1.9726406E3,5.61956E2,3.5521406E3,5.3191797E3,2.6098477E3,3.2112676E3,4.775125E3,2.800295E3,1.6326779E3,3.0560332E3,3.527634E3,2.4332588E3,8.318004E3,0E0,3.0655625E3,7.099086E3,8.840781E3,2.7507188E3,1.579751E3,1.5490859E3,5.2755312E3,2.6389844E3,7.2260625E3,4.3315625E3,1.3201562E3,6.25E-1,0E0,0E0,0E0,0E0,0E0,0E0,0E0,0E0,0E0,0E0,0E0,0E0,0E0,0E0,0E0,0E0,0E0,0E0,0E0,0E0,0E0,0E0,0E0,0E0,0E0,0E0,0E0,0E0,0E0,0E0,0E0,0E0,0E0,0E0,0E0,0E0,0E0,0E0,0E0,0E0,0E0,0E0,0E0,0E0,0E0,0E0,0E0,0E0,0E0,0E0,0E0,0E0,0E0,0E0,0E0,0E0,0E0,0E0,0E0,0E0],"parents":[2147483647,0,0,1,1,2,2,3,3,4,4,5,5,6,6,7,7,8,8,9,9,10,10,11,11,12,12,13,13,14,14,15,15,16,16,17,17,18,18,19,19,20,20,21,21,22,22,23,23,24,24,25,25,26,26,27,27,28,28,29,29,30,30,31,31,32,32,33,33,35,35,36,36,37,37,38,38,39,39,40,40,41,41,42,42,43,43,44,44,45,45,46,46,47,47,48,48,49,49,51,51,52,52,53,53,54,54,55,55,56,56,57,57,58,58,59,59,60,60,61,61,62,62],"right_children":[2,4,6,8,10,12,14,16,18,20,22,24,26,28,30,32,34,36,38,40,42,44,46,48,50,52,54,56,58,60,62,64,66,68,-1,70,72,74,76,78,80,82,84,86,88,90,92,94,96,98,-1,100,102,104,106,108,110,112,114,116,118,120,122,-1,-1,-1,-1,-1,-1,-1,-1,-1,-1,-1,-1,-1,-1,-1,-1,-1,-1,-1,-1,-1,-1,-1,-1,-1,-1,-1,-1,-1,-1,-1,-1,-1,-1,-1,-1,-1,-1,-1,-1,-1,-1,-1,-1,-1,-1,-1,-1,-1,-1,-1,-1,-1,-1,-1,-1,-1,-1,-1,-1],"split_conditions":[6.4E1,3.2E1,9.6E1,1.8E1,5E1,5.594358E1,5.708239E1,1.8259714E1,2.0157494E1,1.9288143E1,6.1450348E1,8.1E1,8E1,4.9581635E1,6.7042595E1,1.1E1,2.4E1,2.3E1,2.3E1,4E1,4.1E1,2.0309551E1,1.761414E1,2.035764E1,1.9E1,1.6104645E1,6.612076E1,1.6104645E1,1.12E2,1.11E2,1.1E2,2.7E1,1.0760793E1,2.4631035E1,-7.7246493E-1,1.506682E1,3E1,2.58743E1,5.841892E1,1E0,5.354048E1,2.4518785E1,5.5862766E1,5.0109615E1,1.6E1,6.8821945E1,1E0,1.3E1,1E0,1.5345419E1,1.363797E0,1.2E1,6.5163376E1,1.794621E1,1.6620733E1,4.3136322E1,4.3136322E1,1.2771765E1,1.545921E1,1.49584055E1,2.3467426E1,1.7717224E1,1.2075496E1,-1.9525007E0,-1.180149E0,-1.856953E0,-1.564093E0,-1.5618261E0,-1.2840298E0,-1.429731E0,-1.1890125E0,-6.7760235E-1,-2.8126678E-1,-1.0202217E0,-7.602691E-1,-4.3529874E-1,5.5639944E-3,-9.988276E-1,-4.4593439E-1,-9.111144E-1,-5.64784E-1,-6.7274314E-1,-3.9168426E-1,-4.7931024E-1,-1.6785215E-1,-6.670751E-1,-3.124559E-1,-4.9415868E-2,6.104195E-1,-1.3950491E-1,2.1116562E-1,2.6838455E-1,9.338023E-1,-8.6505E-2,6.293708E-1,2.6887062E-1,8.9812326E-1,1.9584613E-1,6.0430723E-1,2.5762722E-1,8.839707E-1,5.8363295E-1,9.818684E-1,8.054779E-1,1.1679943E0,1.1916561E0,1.6009859E0,1.0238593E-1,6.1719674E-1,5.1433516E-1,1.0034856E0,8.0425245E-1,1.2254473E0,1.2609327E0,1.6618445E0,1.2956923E0,1.681405E0,1.9169453E0,2.4359548E0,1.8431053E0,2.2829802E0,2.0020304E0,2.6428277E0],"split_indices":[18,18,18,18,18,24,24,19,19,19,24,18,18,24,24,18,27,27,27,18,18,19,19,19,27,19,24,19,18,18,18,27,19,19,0,19,18,19,24,26,24,19,24,24,27,24,26,27,26,19,0,27,24,19,19,24,24,19,19,19,19,19,19,0,0,0,0,0,0,0,0,0,0,0,0,0,0,0,0,0,0,0,0,0,0,0,0,0,0,0,0,0,0,0,0,0,0,0,0,0,0,0,0,0,0,0,0,0,0,0,0,0,0,0,0,0,0,0,0,0,0,0,0],"split_type":[0,0,0,0,0,0,0,0,0,0,0,0,0,0,0,0,0,0,0,0,0,0,0,0,0,0,0,0,0,0,0,0,0,0,0,0,0,0,0,0,0,0,0,0,0,0,0,0,0,0,0,0,0,0,0,0,0,0,0,0,0,0,0,0,0,0,0,0,0,0,0,0,0,0,0,0,0,0,0,0,0,0,0,0,0,0,0,0,0,0,0,0,0,0,0,0,0,0,0,0,0,0,0,0,0,0,0,0,0,0,0,0,0,0,0,0,0,0,0,0,0,0,0],"sum_hessian":[1.1177E4,5.869E3,5.308E3,2.859E3,3.01E3,3.034E3,2.274E3,1.54E3,1.319E3,1.686E3,1.324E3,1.196E3,1.838E3,1.01E3,1.264E3,7.99E2,7.41E2,8.25E2,4.94E2,9.66E2,7.2E2,8.99E2,4.25E2,6.19E2,5.77E2,9.22E2,9.16E2,2.89E2,7.21E2,9.91E2,2.73E2,4.65E2,3.34E2,7.15E2,2.6E1,7.99E2,2.6E1,4.65E2,2.9E1,4.14E2,5.52E2,3.74E2,3.46E2,5.87E2,3.12E2,1.87E2,2.38E2,4.1E2,2.09E2,5.44E2,3.3E1,3.55E2,5.67E2,7.01E2,2.15E2,1.19E2,1.7E2,4.7E2,2.51E2,6.27E2,3.64E2,1.59E2,1.14E2,4.5E2,1.5E1,8.8E1,2.46E2,5.31E2,1.84E2,3.97E2,4.02E2,1.9E1,7E0,3.51E2,1.14E2,1.7E1,1.2E1,3.8E2,3.4E1,1.61E2,3.91E2,2.39E2,1.35E2,1.39E2,2.07E2,1.2E2,4.67E2,2.96E2,1.6E1,1.45E2,4.2E1,2.2E2,1.8E1,3.93E2,1.7E1,1.93E2,1.6E1,1.96E2,3.48E2,3.35E2,2E1,4.08E2,1.59E2,3.61E2,3.4E2,9.3E1,1.22E2,1.8E1,1.01E2,2.2E1,1.48E2,1.04E2,3.66E2,8.2E1,1.69E2,2.03E2,4.24E2,2.97E2,6.7E1,7.1E1,8.8E1,1.8E1,9.6E1],"tree_param":{"num_deleted":"0","num_feature":"34","num_nodes":"123","size_leaf_vector":"1"}},{"base_weights":[-5.0614398E-2,-1.8589533E1,1.7523638E1,-2.8662695E1,-1.0711265E1,7.347251E0,2.6266964E1,-3.2293293E1,-2.4188269E1,-1.5898051E1,-6.218954E0,3.8957841E0,1.3542552E1,2.0728857E1,3.418584E1,-3.6638447E1,-2.9675365E1,-2.6378578E1,-1.8871302E1,-1.957544E1,-1.2464401E1,-8.764705E0,-1.7306962E0,-7.6247704E-1,7.246839E0,8.274567E0,1.7689325E1,1.5697793E1,2.5242905E1,2.7311815E1,3.8563572E1,-3.698918E1,-1.1975907E0,-3.1207785E1,-2.586059E1,-3.0861385E1,-2.5035212E1,-1.9701149E1,-1.0300065E1,-2.039631E1,-1.0047915E1,-1.3897483E1,-7.700511E0,-1.20451355E1,-5.8247833E0,-6.6628985E0,7.9602975E-1,-4.9279757E0,2.41728E0,1.6728225E0,9.656185E0,5.738269E0,1.399507E1,1.0755394E1,1.956791E1,1.0949686E1,1.9698765E1,1.7806036E1,2.8088045E1,2.6401682E1,2.0788777E0,3.6634197E1,4.8148605E1,-1.9807701E0,-1.7561995E0,-1.5869168E0,-9.308595E-1,-1.3109897E0,-6.0319257E-1,-1.569778E0,-1.0601729E0,-1.2789975E0,-7.7099603E-1,-1.059287E0,-8.356053E-1,-6.908333E-1,-2.927844E-1,-1.1220808E0,-8.52886E-1,-6.4386004E-1,-3.37758E-1,-7.3059195E-1,-2.3428957E-1,-4.5811602E-1,2.4279267E-2,-7.875454E-1,-5.0547624E-1,-3.270203E-1,4.164312E-1,-5.966018E-1,-2.3955892E-1,-1.3135104E-1,1.8359892E-1,-4.5499426E-1,-1.4587049E-1,-1.7090057E-1,1.9210725E-1,-2.5812108E-2,3.061756E-1,2.9633376E-1,6.337438E-1,2.2563496E-1,5.5272174E-1,6.1214715E-1,1.2744267E0,4.60505E-1,8.4322923E-1,8.996148E-1,1.3071707E0,4.4443232E-1,8.97906E-1,8.3860683E-1,1.1736656E0,3.8649756E-1,9.646193E-1,1.1876371E0,1.5429333E0,1.1058886E0,1.4619703E0,1.6235577E0,1.9946127E0,2.195874E0,2.624913E0],"categories":[],"categories_nodes":[],"categories_segments":[],"categories_sizes":[],"default_left":[0,0,0,0,0,0,0,0,0,0,0,0,0,0,0,0,0,0,0,0,0,0,0,0,0,0,0,0,0,0,0,0,0,0,0,0,0,0,0,0,0,0,0,0,0,0,0,0,0,0,0,0,0,0,0,0,0,0,0,0,0,0,0,0,0,0,0,0,0,0,0,0,0,0,0,0,0,0,0,0,0,0,0,0,0,0,0,0,0,0,0,0,0,0,0,0,0,0,0,0,0,0,0,0,0,0,0,0,0,0,0,0,0,0,0,0,0,0,0,0,0,0,0],"id":10,"left_children":[1,3,5,7,9,11,13,15,17,19,21,23,25,27,29,31,33,35,37,39,41,43,45,47,49,51,53,55,57,59,61,63,-1,65,67,69,71,73,75,77,79,81,83,85,87,89,91,93,95,97,99,101,103,105,107,109,111,113,115,117,-1,119,121,-1,-1,-1,-1,-1,-1,-1,-1,-1,-1,-1,-1,-1,-1,-1,-1,-1,-1,-1,-1,-1,-1,-1,-1,-1,-1,-1,-1,-1,-1,-1,-1,-1,-1,-1,-1,-1,-1,-1,-1,-1,-1,-1,-1,-1,-1,-1,-1,-1,-1,-1,-1,-1,-1,-1,-1,-1,-1,-1,-1],"loss_changes":[3.63471E6,4.3052962E5,5.09366E5,3.7908375E4,7.091928E4,5.656736E4,1.3436125E5,1.38305E4,1.19703125E4,1.7607219E4,1.866527E4,2.6574547E4,2.053839E4,4.0819062E4,3.7037375E4,1.28375E3,4.00425E3,3.7745E3,2.0417188E3,5.1180312E3,4.901875E3,9.986961E3,7.396048E3,9.456043E3,1.3278152E4,5.996951E3,6.67725E3,1.6137703E4,1.9702125E4,5.3354062E3,1.248575E4,9.229375E2,0E0,3.2985E3,8.791875E2,2.0607812E2,2.6760312E3,9.1571875E2,3.8599976E2,3.8878594E3,4.327539E2,3.634375E3,2.0635557E3,3.3672578E3,5.6452207E3,1.9234912E3,3.878646E3,2.5641113E3,3.3805483E3,2.9265762E3,7.702457E3,1.8510342E3,2.261838E3,9.2772363E2,3.8247969E3,5.5577773E3,4.750047E3,3.846914E3,7.5375E3,5.0495938E3,0E0,7.4595E3,3.65625E0,0E0,0E0,0E0,0E0,0E0,0E0,0E0,0E0,0E0,0E0,0E0,0E0,0E0,0E0,0E0,0E0,0E0,0E0,0E0,0E0,0E0,0E0,0E0,0E0,0E0,0E0,0E0,0E0,0E0,0E0,0E0,0E0,0E0,0E0,0E0,0E0,0E0,0E0,0E0,0E0,0E0,0E0,0E0,0E0,0E0,0E0,0E0,0E0,0E0,0E0,0E0,0E0,0E0,0E0,0E0,0E0,0E0,0E0,0E0,0E0],"parents":[2147483647,0,0,1,1,2,2,3,3,4,4,5,5,6,6,7,7,8,8,9,9,10,10,11,11,12,12,13,13,14,14,15,15,16,16,17,17,18,18,19,19,20,20,21,21,22,22,23,23,24,24,25,25,26,26,27,27,28,28,29,29,30,30,31,31,33,33,34,34,35,35,36,36,37,37,38,38,39,39,40,40,41,41,42,42,43,43,44,44,45,45,46,46,47,47,48,48,49,49,50,50,51,51,52,52,53,53,54,54,55,55,56,56,57,57,58,58,59,59,61,61,62,62],"right_children":[2,4,6,8,10,12,14,16,18,20,22,24,26,28,30,32,34,36,38,40,42,44,46,48,50,52,54,56,58,60,62,64,-1,66,68,70,72,74,76,78,80,82,84,86,88,90,92,94,96,98,100,102,104,106,108,110,112,114,116,118,-1,120,122,-1,-1,-1,-1,-1,-1,-1,-1,-1,-1,-1,-1,-1,-1,-1,-1,-1,-1,-1,-1,-1,-1,-1,-1,-1,-1,-1,-1,-1,-1,-1,-1,-1,-1,-1,-1,-1,-1,-1,-1,-1,-1,-1,-1,-1,-1,-1,-1,-1,-1,-1,-1,-1,-1,-1,-1,-1,-1,-1,-1],"split_conditions":[5.9E1,2.7E1,8.7E1,1.5E1,4.2E1,6.0617634E1,5.9794468E1,1.5896176E1,2.1414476E1,1.7786816E1,2.0309551E1,7.1E1,7.2E1,1.03E2,1E2,2.3E1,2.306528E1,1.2434695E1,8E0,7E0,6.3549324E1,5.708239E1,5.4946796E1,1.673696E1,5.1300465E1,2.0945227E1,1.2771765E1,5.3190105E1,5.091803E1,1.6E1,6.92571E1,7E0,-1.1975907E0,2.4E1,2.2E1,1E0,1.1E1,2.5726091E1,2.1E1,5.986935E1,1.447602E1,1.1E1,2.8042496E1,1.3237163E1,2.3E1,4.7187706E1,5E1,5.1300465E1,4.9710262E1,2.003043E1,1.673696E1,6.94815E1,2E0,6.8611694E1,6.904005E1,2.221759E1,1.924164E1,4.3136322E1,1.6233828E1,1.6566874E1,2.0788777E0,1.7165405E1,1.875844E1,-1.9807701E0,-1.7561995E0,-1.5869168E0,-9.308595E-1,-1.3109897E0,-6.0319257E-1,-1.569778E0,-1.0601729E0,-1.2789975E0,-7.7099603E-1,-1.059287E0,-8.356053E-1,-6.908333E-1,-2.927844E-1,-1.1220808E0,-8.52886E-1,-6.4386004E-1,-3.37758E-1,-7.3059195E-1,-2.3428957E-1,-4.5811602E-1,2.4279267E-2,-7.875454E-1,-5.0547624E-1,-3.270203E-1,4.164312E-1,-5.966018E-1,-2.3955892E-1,-1.3135104E-1,1.8359892E-1,-4.5499426E-1,-1.4587049E-1,-1.7090057E-1,1.9210725E-1,-2.5812108E-2,3.061756E-1,2.9633376E-1,6.337438E-1,2.2563496E-1,5.5272174E-1,6.1214715E-1,1.2744267E0,4.60505E-1,8.4322923E-1,8.996148E-1,1.3071707E0,4.4443232E-1,8.97906E-1,8.3860683E-1,1.1736656E0,3.8649756E-1,9.646193E-1,1.1876371E0,1.5429333E0,1.1058886E0,1.4619703E0,1.6235577E0,1.9946127E0,2.195874E0,2.624913E0],"split_indices":[18,18,18,18,18,24,24,19,19,19,19,18,18,18,18,27,19,19,27,27,24,24,24,19,24,19,19,24,24,27,24,18,0,27,27,26,27,19,18,24,19,27,19,19,27,24,18,24,24,19,19,24,28,24,24,19,19,24,19,19,0,19,19,0,0,0,0,0,0,0,0,0,0,0,0,0,0,0,0,0,0,0,0,0,0,0,0,0,0,0,0,0,0,0,0,0,0,0,0,0,0,0,0,0,0,0,0,0,0,0,0,0,0,0,0,0,0,0,0,0,0,0,0],"split_type":[0,0,0,0,0,0,0,0,0,0,0,0,0,0,0,0,0,0,0,0,0,0,0,0,0,0,0,0,0,0,0,0,0,0,0,0,0,0,0,0,0,0,0,0,0,0,0,0,0,0,0,0,0,0,0,0,0,0,0,0,0,0,0,0,0,0,0,0,0,0,0,0,0,0,0,0,0,0,0,0,0,0,0,0,0,0,0,0,0,0,0,0,0,0,0,0,0,0,0,0,0,0,0,0,0,0,0,0,0,0,0,0,0,0,0,0,0,0,0,0,0,0,0],"sum_hessian":[1.1154E4,5.428E3,5.726E3,2.381E3,3.047E3,2.647E3,3.079E3,1.311E3,1.07E3,1.413E3,1.634E3,1.701E3,9.46E2,1.814E3,1.265E3,4.88E2,8.23E2,7.55E2,3.15E2,6.8E2,7.33E2,1.042E3,5.92E2,7.12E2,9.89E2,4.18E2,5.28E2,8.6E2,9.54E2,4.95E2,7.7E2,4.73E2,1.5E1,5.82E2,2.41E2,1.69E2,5.86E2,2.86E2,2.9E1,6.25E2,5.5E1,5.62E2,1.71E2,4.91E2,5.51E2,2E2,3.92E2,3.08E2,4.04E2,2.99E2,6.9E2,2.91E2,1.27E2,1.14E2,4.14E2,3.95E2,4.65E2,2.66E2,6.88E2,4.68E2,2.7E1,6.45E2,1.25E2,1.88E2,2.85E2,5.57E2,2.5E1,2.34E2,7E0,1.58E2,1.1E1,5.53E2,3.3E1,1.87E2,9.9E1,1.5E1,1.4E1,3.84E2,2.41E2,2.8E1,2.7E1,5.21E2,4.1E1,1.45E2,2.6E1,1.66E2,3.25E2,5.25E2,2.6E1,5.1E1,1.49E2,1.79E2,2.13E2,9.9E1,2.09E2,7.9E1,3.25E2,2.01E2,9.8E1,3.1E2,3.8E2,2.38E2,5.3E1,1.12E2,1.5E1,9.3E1,2.1E1,3.37E2,7.7E1,3.07E2,8.8E1,2.65E2,2E2,3.5E1,2.31E2,2.72E2,4.16E2,1.9E2,2.78E2,2.88E2,3.57E2,6.9E1,5.6E1],"tree_param":{"num_deleted":"0","num_feature":"34","num_nodes":"123","size_leaf_vector":"1"}},{"base_weights":[1.2503804E-1,-1.7147581E1,1.7447294E1,-2.5557777E1,-7.9028406E0,8.83557E0,2.6221329E1,-2.9549109E1,-2.019206E1,-1.1486222E1,-3.2276032E0,4.9853587E0,1.4153036E1,2.0487331E1,3.3240192E1,-3.2180084E1,-2.528034E1,-2.2661287E1,-1.5974632E1,-1.3885027E1,-7.119009E0,-6.919132E0,-2.4895752E-2,7.137809E-1,9.031682E0,9.565782E0,1.9129135E1,1.6027319E1,2.447063E1,2.8821995E1,3.859005E1,-3.5858173E1,-3.0376421E1,-2.7716148E1,-2.2238344E1,-2.439401E1,-1.9646015E1,-1.650978E1,-2.5385027E0,-1.5487892E1,-9.873714E0,-1.0435565E1,-5.113513E0,-1.1219472E1,-4.434086E0,-3.7426748E0,3.1902552E0,-2.4378319E0,4.162352E0,3.718729E0,1.1733929E1,6.207177E0,1.3734889E1,1.6128935E1,2.3212833E1,1.157767E1,1.9250916E1,2.1270483E1,3.0316559E1,2.585466E1,3.3750977E1,3.426541E1,4.2806625E1,-1.8184788E0,-1.4039215E0,-1.6869421E0,-1.4232064E0,-1.4159797E0,-9.331085E-1,-1.1478848E0,-6.426912E-1,-1.3893083E0,-1.1440493E0,-1.1178497E0,-8.71164E-1,-8.680669E-1,-5.0615156E-1,-3.1294224E-1,3.6354788E-2,-8.063702E-1,-2.6021636E-1,-5.152613E-1,1.3987993E-1,-5.5389696E-1,8.289912E-2,-2.8912124E-1,1.7175198E-1,-5.952079E-1,1.3480572E-1,-2.5229827E-1,3.427256E-1,-2.4165547E-1,1.8912601E-1,1.2272482E-1,6.4979696E-1,-5.377808E-1,-8.3454385E-2,-3.235767E-2,3.025067E-1,-6.9001056E-2,2.8802484E-1,3.7157917E-1,7.333223E-1,2.547014E-1,6.313175E-1,5.762011E-1,1.0005966E0,7.237912E-1,1.1247743E0,1.0301036E0,1.362353E0,3.7721995E-1,7.499344E-1,8.050181E-1,1.1665907E0,8.6846685E-1,1.2043048E0,1.4624138E0,2.214745E0,1.0217717E0,1.4119291E0,1.6173416E0,2.319084E0,1.5604196E0,1.9189663E0,1.96446E0,2.3554828E0],"categories":[],"categories_nodes":[],"categories_segments":[],"categories_sizes":[],"default_left":[0,0,0,0,0,0,0,0,0,0,0,0,0,0,0,0,0,0,0,0,0,0,0,0,0,0,0,0,0,0,0,0,0,0,0,0,0,0,0,0,0,0,0,0,0,0,0,0,0,0,0,0,0,0,0,0,0,0,0,0,0,0,0,0,0,0,0,0,0,0,0,0,0,0,0,0,0,0,0,0,0,0,0,0,0,0,0,0,0,0,0,0,0,0,0,0,0,0,0,0,0,0,0,0,0,0,0,0,0,0,0,0,0,0,0,0,0,0,0,0,0,0,0,0,0,0,0],"id":11,"left_children":[1,3,5,7,9,11,13,15,17,19,21,23,25,27,29,31,33,35,37,39,41,43,45,47,49,51,53,55,57,59,61,63,65,67,69,71,73,75,77,79,81,83,85,87,89,91,93,95,97,99,101,103,105,107,109,111,113,115,117,119,121,123,125,-1,-1,-1,-1,-1,-1,-1,-1,-1,-1,-1,-1,-1,-1,-1,-1,-1,-1,-1,-1,-1,-1,-1,-1,-1,-1,-1,-1,-1,-1,-1,-1,-1,-1,-1,-1,-1,-1,-1,-1,-1,-1,-1,-1,-1,-1,-1,-1,-1,-1,-1,-1,-1,-1,-1,-1,-1,-1,-1,-1,-1,-1,-1,-1],"loss_changes":[3.3360882E6,4.3387338E5,4.20405E5,6.1998375E4,4.4541625E4,5.7478156E4,1.10272125E5,1.79815E4,1.2651375E4,1.5676047E4,1.366639E4,2.8200367E4,2.6749562E4,2.6607438E4,2.814325E4,5.750375E3,4.1430625E3,3.6229062E3,3.2996953E3,6.087672E3,3.5101992E3,5.6873613E3,7.4229917E3,8.650826E3,1.1985906E4,8.538219E3,6.544E3,1.0101625E4,1.4335E4,9.0963125E3,8.6824375E3,3.0121875E2,3.528E3,1.3954375E3,1.6657969E3,1.89975E3,1.3660156E3,2.252586E3,2.3593765E2,4.4648438E3,1.5605664E3,1.5807969E3,1.9414209E3,1.9004668E3,2.3966885E3,2.381638E3,2.3690244E3,2.6408127E3,3.4545874E3,2.9649587E3,6.8910703E3,2.3848135E3,3.5687266E3,3.1332656E3,1.9300547E3,4.0929453E3,4.9689688E3,5.3002344E3,2.8932188E3,4.97325E3,2.9788438E3,2.3166562E3,2.3481562E3,0E0,0E0,0E0,0E0,0E0,0E0,0E0,0E0,0E0,0E0,0E0,0E0,0E0,0E0,0E0,0E0,0E0,0E0,0E0,0E0,0E0,0E0,0E0,0E0,0E0,0E0,0E0,0E0,0E0,0E0,0E0,0E0,0E0,0E0,0E0,0E0,0E0,0E0,0E0,0E0,0E0,0E0,0E0,0E0,0E0,0E0,0E0,0E0,0E0,0E0,0E0,0E0,0E0,0E0,0E0,0E0,0E0,0E0,0E0,0E0,0E0,0E0,0E0,0E0],"parents":[2147483647,0,0,1,1,2,2,3,3,4,4,5,5,6,6,7,7,8,8,9,9,10,10,11,11,12,12,13,13,14,14,15,15,16,16,17,17,18,18,19,19,20,20,21,21,22,22,23,23,24,24,25,25,26,26,27,27,28,28,29,29,30,30,31,31,32,32,33,33,34,34,35,35,36,36,37,37,38,38,39,39,40,40,41,41,42,42,43,43,44,44,45,45,46,46,47,47,48,48,49,49,50,50,51,51,52,52,53,53,54,54,55,55,56,56,57,57,58,58,59,59,60,60,61,61,62,62],"right_children":[2,4,6,8,10,12,14,16,18,20,22,24,26,28,30,32,34,36,38,40,42,44,46,48,50,52,54,56,58,60,62,64,66,68,70,72,74,76,78,80,82,84,86,88,90,92,94,96,98,100,102,104,106,108,110,112,114,116,118,120,122,124,126,-1,-1,-1,-1,-1,-1,-1,-1,-1,-1,-1,-1,-1,-1,-1,-1,-1,-1,-1,-1,-1,-1,-1,-1,-1,-1,-1,-1,-1,-1,-1,-1,-1,-1,-1,-1,-1,-1,-1,-1,-1,-1,-1,-1,-1,-1,-1,-1,-1,-1,-1,-1,-1,-1,-1,-1,-1,-1,-1,-1,-1,-1,-1,-1],"split_conditions":[6.1E1,3.3E1,9.1E1,1.9E1,4.9E1,5.9401596E1,5.9117508E1,1.9794754E1,2.0157494E1,2.0485634E1,5.708239E1,7.6E1,7.7E1,5.326808E1,1.07E2,7E0,1.1E1,5.9794468E1,2.3E1,6.152652E1,5.546959E1,1.5965749E1,1.7679052E1,1.8060772E1,5.138316E1,1.875844E1,1.9011124E1,1.03E2,1.1E2,6.547532E1,6.3647907E1,1E0,1.3300103E1,8E0,1.2E1,1.2618842E1,2.5E1,2.7809624E1,1.0287691E0,1.8E1,2.2E1,1.9E1,8E0,1.7E1,1.3E1,6.904005E1,1.5E1,4.6523876E1,5.039444E1,4.5760925E1,1.635021E1,7.004863E1,6.672758E1,6.8611694E1,6.547532E1,1.6791645E1,1.9011124E1,1.6855825E1,1.5E1,1.4679886E1,8E0,1.9191507E1,1.9191507E1,-1.8184788E0,-1.4039215E0,-1.6869421E0,-1.4232064E0,-1.4159797E0,-9.331085E-1,-1.1478848E0,-6.426912E-1,-1.3893083E0,-1.1440493E0,-1.1178497E0,-8.71164E-1,-8.680669E-1,-5.0615156E-1,-3.1294224E-1,3.6354788E-2,-8.063702E-1,-2.6021636E-1,-5.152613E-1,1.3987993E-1,-5.5389696E-1,8.289912E-2,-2.8912124E-1,1.7175198E-1,-5.952079E-1,1.3480572E-1,-2.5229827E-1,3.427256E-1,-2.4165547E-1,1.8912601E-1,1.2272482E-1,6.4979696E-1,-5.377808E-1,-8.3454385E-2,-3.235767E-2,3.025067E-1,-6.9001056E-2,2.8802484E-1,3.7157917E-1,7.333223E-1,2.547014E-1,6.313175E-1,5.762011E-1,1.0005966E0,7.237912E-1,1.1247743E0,1.0301036E0,1.362353E0,3.7721995E-1,7.499344E-1,8.050181E-1,1.1665907E0,8.6846685E-1,1.2043048E0,1.4624138E0,2.214745E0,1.0217717E0,1.4119291E0,1.6173416E0,2.319084E0,1.5604196E0,1.9189663E0,1.96446E0,2.3554828E0],"split_indices":[18,18,18,18,18,24,24,19,19,19,24,18,18,24,18,18,18,24,27,24,24,19,19,19,24,19,19,18,18,24,24,26,19,27,27,19,18,19,25,27,27,27,27,27,27,24,27,24,24,24,19,24,24,24,24,19,19,19,27,19,27,19,19,0,0,0,0,0,0,0,0,0,0,0,0,0,0,0,0,0,0,0,0,0,0,0,0,0,0,0,0,0,0,0,0,0,0,0,0,0,0,0,0,0,0,0,0,0,0,0,0,0,0,0,0,0,0,0,0,0,0,0,0,0,0,0,0],"split_type":[0,0,0,0,0,0,0,0,0,0,0,0,0,0,0,0,0,0,0,0,0,0,0,0,0,0,0,0,0,0,0,0,0,0,0,0,0,0,0,0,0,0,0,0,0,0,0,0,0,0,0,0,0,0,0,0,0,0,0,0,0,0,0,0,0,0,0,0,0,0,0,0,0,0,0,0,0,0,0,0,0,0,0,0,0,0,0,0,0,0,0,0,0,0,0,0,0,0,0,0,0,0,0,0,0,0,0,0,0,0,0,0,0,0,0,0,0,0,0,0,0,0,0,0,0,0,0],"sum_hessian":[1.1148E4,5.582E3,5.566E3,2.922E3,2.66E3,2.81E3,2.756E3,1.673E3,1.249E3,1.505E3,1.155E3,1.631E3,1.179E3,1.519E3,1.237E3,1.031E3,6.42E2,7.85E2,4.64E2,9.7E2,5.35E2,5.36E2,6.19E2,7.94E2,8.37E2,6.15E2,5.64E2,7.19E2,8E2,6.81E2,5.56E2,3.33E2,6.98E2,3.52E2,2.9E2,4.94E2,2.91E2,4.46E2,1.8E1,6.91E2,2.79E2,2E2,3.35E2,1.95E2,3.41E2,2.87E2,3.32E2,4.15E2,3.79E2,2.83E2,5.54E2,3.42E2,2.73E2,3.28E2,2.36E2,3.04E2,4.15E2,5.2E2,2.8E2,4.29E2,2.52E2,2.79E2,2.77E2,3.09E2,2.4E1,2.47E2,4.51E2,3.28E2,2.4E1,2.68E2,2.2E1,1.47E2,3.47E2,1.27E2,1.64E2,3.92E2,5.4E1,8E0,1E1,6.5E2,4.1E1,2.7E2,9E0,1.9E2,1E1,3.11E2,2.4E1,1.86E2,9E0,3.24E2,1.7E1,2.51E2,3.6E1,3.1E2,2.2E1,3.4E1,3.81E2,1.07E2,2.72E2,8.1E1,2.02E2,2.26E2,3.28E2,2.93E2,4.9E1,2.04E2,6.9E1,2.63E2,6.5E1,1.47E2,8.9E1,1.41E2,1.63E2,2.37E2,1.78E2,2.21E2,2.99E2,2.63E2,1.7E1,1.34E2,2.95E2,2.3E2,2.2E1,1.65E2,1.14E2,1.58E2,1.19E2],"tree_param":{"num_deleted":"0","num_feature":"34","num_nodes":"127","size_leaf_vector":"1"}},{"base_weights":[4.7143076E-2,-1.5697888E1,1.6916622E1,-2.3717037E1,-6.412803E0,9.557618E0,2.5646715E1,-2.8109842E1,-1.870532E1,-9.628427E0,-1.6485121E0,3.4633996E0,1.2804529E1,1.7911404E1,3.0460611E1,-3.0317892E1,-2.3642727E1,-2.0712166E1,-1.4482157E1,-1.34886265E1,-7.177023E0,-4.5509205E0,2.3409271E0,-4.5995077E-1,7.2819967E0,8.737142E0,1.7647404E1,1.0575977E1,1.9945086E1,2.7113806E1,3.5482853E1,-3.3818714E1,-2.861788E1,-2.6043545E1,-2.0606613E1,-2.1361015E1,-1.1342445E1,-1.5175463E1,-5.3694816E0,-1.671677E1,-1.1365976E1,-1.0590241E1,-4.969057E0,-6.6612873E0,5.4942715E-1,9.3864435E-1,9.8442955E0,-5.5168276E0,1.5665882E0,6.305688E0,2.2444351E1,6.269674E0,1.3576872E1,1.6011703E1,2.4693459E1,4.6504E0,1.2820568E1,1.7174765E1,2.3951635E1,2.4711798E1,3.3558094E1,3.0690744E1,3.9359478E1,-1.8657626E0,-1.6210711E0,-1.5884378E0,-1.3381063E0,-1.3226869E0,-7.393699E-1,-1.0790275E0,-7.0161253E-1,-1.3258675E0,-1.022847E0,-7.32954E-1,-3.6786494E-1,-8.7716645E-1,-6.4328665E-1,-4.2276683E-1,-1.16029315E-1,-8.6156714E-1,-2.640626E-1,-6.039981E-1,-8.033116E-2,-5.957747E-1,-2.9829568E-1,-2.7944973E-1,3.9457032E-1,-5.31895E-1,-2.4381565E-1,-1.5579924E-2,5.98656E-1,-1.2609984E-1,1.4444253E-1,4.2526588E-1,9.740223E-1,-4.216898E-1,-1.3013968E-1,4.3075223E-2,7.9095405E-1,7.965642E-2,4.3283868E-1,6.24947E-1,1.1936178E0,2.0415488E-1,5.345699E-1,6.2272716E-1,1.2602359E0,7.0902276E-1,1.0488647E0,1.0200942E0,1.4444848E0,7.57509E-2,4.5777702E-1,5.1816624E-1,8.0434114E-1,7.1817917E-1,1.0428373E0,1.0132793E0,1.3704104E0,1.1154748E0,1.4440227E0,1.4438177E0,1.8051682E0,1.4501982E0,2.28952E0,1.8432692E0,2.2596238E0],"categories":[],"categories_nodes":[],"categories_segments":[],"categories_sizes":[],"default_left":[0,0,0,0,0,0,0,0,0,0,0,0,0,0,0,0,0,0,0,0,0,0,0,0,0,0,0,0,0,0,0,0,0,0,0,0,0,0,0,0,0,0,0,0,0,0,0,0,0,0,0,0,0,0,0,0,0,0,0,0,0,0,0,0,0,0,0,0,0,0,0,0,0,0,0,0,0,0,0,0,0,0,0,0,0,0,0,0,0,0,0,0,0,0,0,0,0,0,0,0,0,0,0,0,0,0,0,0,0,0,0,0,0,0,0,0,0,0,0,0,0,0,0,0,0,0,0],"id":12,"left_children":[1,3,5,7,9,11,13,15,17,19,21,23,25,27,29,31,33,35,37,39,41,43,45,47,49,51,53,55,57,59,61,63,65,67,69,71,73,75,77,79,81,83,85,87,89,91,93,95,97,99,101,103,105,107,109,111,113,115,117,119,121,123,125,-1,-1,-1,-1,-1,-1,-1,-1,-1,-1,-1,-1,-1,-1,-1,-1,-1,-1,-1,-1,-1,-1,-1,-1,-1,-1,-1,-1,-1,-1,-1,-1,-1,-1,-1,-1,-1,-1,-1,-1,-1,-1,-1,-1,-1,-1,-1,-1,-1,-1,-1,-1,-1,-1,-1,-1,-1,-1,-1,-1,-1,-1,-1,-1],"loss_changes":[2.9814775E6,4.3215075E5,3.47894E5,6.8047875E4,4.122489E4,5.81685E4,9.1722875E4,1.5631625E4,1.20534375E4,1.5108016E4,1.2585647E4,1.5345287E4,3.7643344E4,1.4002781E4,2.4681375E4,5.60825E3,3.4895625E3,5.7488438E3,2.9048047E3,4.0761172E3,7.369047E3,6.77458E3,4.808686E3,5.194504E3,7.5384277E3,1.2392156E4,9.685125E3,2.7184336E3,7.8535938E3,1.34058125E4,1.00614375E4,5.225E2,3.53525E3,1.0129219E3,1.2879609E3,3.7462812E3,7.622871E2,2.1722031E3,3.0859668E2,1.3484297E3,2.6201055E3,2.2926875E3,4.8274805E3,3.105252E3,1.8245741E3,2.6191714E3,7.605E2,1.2094658E3,3.6225142E3,5.403125E3,1.3824902E2,6.6647676E3,4.2760156E3,6.1824844E3,2.3410469E3,8.184569E2,1.0425645E3,4.292617E3,3.2875938E3,6.10025E3,1.8942812E3,5.6940938E3,3.1556875E3,0E0,0E0,0E0,0E0,0E0,0E0,0E0,0E0,0E0,0E0,0E0,0E0,0E0,0E0,0E0,0E0,0E0,0E0,0E0,0E0,0E0,0E0,0E0,0E0,0E0,0E0,0E0,0E0,0E0,0E0,0E0,0E0,0E0,0E0,0E0,0E0,0E0,0E0,0E0,0E0,0E0,0E0,0E0,0E0,0E0,0E0,0E0,0E0,0E0,0E0,0E0,0E0,0E0,0E0,0E0,0E0,0E0,0E0,0E0,0E0,0E0,0E0,0E0,0E0],"parents":[2147483647,0,0,1,1,2,2,3,3,4,4,5,5,6,6,7,7,8,8,9,9,10,10,11,11,12,12,13,13,14,14,15,15,16,16,17,17,18,18,19,19,20,20,21,21,22,22,23,23,24,24,25,25,26,26,27,27,28,28,29,29,30,30,31,31,32,32,33,33,34,34,35,35,36,36,37,37,38,38,39,39,40,40,41,41,42,42,43,43,44,44,45,45,46,46,47,47,48,48,49,49,50,50,51,51,52,52,53,53,54,54,55,55,56,56,57,57,58,58,59,59,60,60,61,61,62,62],"right_children":[2,4,6,8,10,12,14,16,18,20,22,24,26,28,30,32,34,36,38,40,42,44,46,48,50,52,54,56,58,60,62,64,66,68,70,72,74,76,78,80,82,84,86,88,90,92,94,96,98,100,102,104,106,108,110,112,114,116,118,120,122,124,126,-1,-1,-1,-1,-1,-1,-1,-1,-1,-1,-1,-1,-1,-1,-1,-1,-1,-1,-1,-1,-1,-1,-1,-1,-1,-1,-1,-1,-1,-1,-1,-1,-1,-1,-1,-1,-1,-1,-1,-1,-1,-1,-1,-1,-1,-1,-1,-1,-1,-1,-1,-1,-1,-1,-1,-1,-1,-1,-1,-1,-1,-1,-1,-1],"split_conditions":[6.3E1,3.5E1,9.4E1,1.9E1,5.2E1,5.5096287E1,5.594358E1,2.041395E1,2.0869183E1,1.639659E1,5.986935E1,7.9E1,8E1,4.794865E1,6.3476276E1,7E0,1.1E1,1.5E1,6E0,5.5173584E1,5.546959E1,2.1414476E1,2.4430754E1,1.4552752E1,1.8E1,2.041395E1,6.7042595E1,1.3557346E1,1.924164E1,1.13E2,1.05E2,1.2434695E1,1.3627778E1,2.1E1,2.8317701E1,1.025087E1,2.7E1,2.7E1,2.2E1,2.1E1,1E0,2.4430754E1,2.1E1,1.306698E1,1E1,1.461923E1,1E1,5.072147E1,1.3E1,1.5345419E1,2.4E1,6.3476276E1,9E0,2.1344994E1,1.761414E1,1.11E2,1.09E2,1.09E2,1.07E2,1.9853567E1,1.5896176E1,7E0,2.0869183E1,-1.8657626E0,-1.6210711E0,-1.5884378E0,-1.3381063E0,-1.3226869E0,-7.393699E-1,-1.0790275E0,-7.0161253E-1,-1.3258675E0,-1.022847E0,-7.32954E-1,-3.6786494E-1,-8.7716645E-1,-6.4328665E-1,-4.2276683E-1,-1.16029315E-1,-8.6156714E-1,-2.640626E-1,-6.039981E-1,-8.033116E-2,-5.957747E-1,-2.9829568E-1,-2.7944973E-1,3.9457032E-1,-5.31895E-1,-2.4381565E-1,-1.5579924E-2,5.98656E-1,-1.2609984E-1,1.4444253E-1,4.2526588E-1,9.740223E-1,-4.216898E-1,-1.3013968E-1,4.3075223E-2,7.9095405E-1,7.965642E-2,4.3283868E-1,6.24947E-1,1.1936178E0,2.0415488E-1,5.345699E-1,6.2272716E-1,1.2602359E0,7.0902276E-1,1.0488647E0,1.0200942E0,1.4444848E0,7.57509E-2,4.5777702E-1,5.1816624E-1,8.0434114E-1,7.1817917E-1,1.0428373E0,1.0132793E0,1.3704104E0,1.1154748E0,1.4440227E0,1.4438177E0,1.8051682E0,1.4501982E0,2.28952E0,1.8432692E0,2.2596238E0],"split_indices":[18,18,18,18,18,24,24,19,19,19,24,18,18,24,24,18,18,27,27,24,24,19,19,19,27,19,24,19,19,18,18,19,19,27,19,19,18,18,27,27,26,19,27,19,27,19,27,24,27,19,27,24,27,19,19,18,18,18,18,19,19,27,19,0,0,0,0,0,0,0,0,0,0,0,0,0,0,0,0,0,0,0,0,0,0,0,0,0,0,0,0,0,0,0,0,0,0,0,0,0,0,0,0,0,0,0,0,0,0,0,0,0,0,0,0,0,0,0,0,0,0,0,0,0,0,0,0],"split_type":[0,0,0,0,0,0,0,0,0,0,0,0,0,0,0,0,0,0,0,0,0,0,0,0,0,0,0,0,0,0,0,0,0,0,0,0,0,0,0,0,0,0,0,0,0,0,0,0,0,0,0,0,0,0,0,0,0,0,0,0,0,0,0,0,0,0,0,0,0,0,0,0,0,0,0,0,0,0,0,0,0,0,0,0,0,0,0,0,0,0,0,0,0,0,0,0,0,0,0,0,0,0,0,0,0,0,0,0,0,0,0,0,0,0,0,0,0,0,0,0,0,0,0,0,0,0,0],"sum_hessian":[1.1223E4,5.805E3,5.418E3,3.114E3,2.691E3,2.941E3,2.477E3,1.657E3,1.457E3,1.606E3,1.085E3,1.023E3,1.918E3,9.52E2,1.525E3,1.105E3,5.52E2,9.85E2,4.72E2,6.22E2,9.84E2,6.28E2,4.57E2,5.05E2,5.18E2,1.044E3,8.74E2,2.08E2,7.44E2,9.19E2,6.06E2,3.55E2,7.5E2,3.04E2,2.48E2,9.2E2,6.5E1,4.38E2,3.4E1,2.44E2,3.78E2,3.85E2,5.99E2,4.44E2,1.84E2,3.86E2,7.1E1,1.44E2,3.61E2,4.88E2,3E1,6.93E2,3.51E2,7.12E2,1.62E2,5.8E1,1.5E2,4.43E2,3.01E2,6.73E2,2.46E2,2.75E2,3.31E2,9.4E1,2.61E2,2.72E2,4.78E2,2.92E2,1.2E1,2.14E2,3.4E1,1.33E2,7.87E2,3.4E1,3.1E1,2.13E2,2.25E2,1.6E1,1.8E1,2.33E2,1.1E1,3.52E2,2.6E1,2.98E2,8.7E1,5.72E2,2.7E1,1.36E2,3.08E2,1.72E2,1.2E1,1.39E2,2.47E2,6.4E1,7E0,7.1E1,7.3E1,3.45E2,1.6E1,1.63E2,3.25E2,5E0,2.5E1,4.65E2,2.28E2,3.22E2,2.9E1,5.23E2,1.89E2,8.3E1,7.9E1,3.5E1,2.3E1,8.8E1,6.2E1,2.54E2,1.89E2,1.49E2,1.52E2,4.31E2,2.42E2,9.1E1,1.55E2,2.5E2,2.5E1,2.37E2,9.4E1],"tree_param":{"num_deleted":"0","num_feature":"34","num_nodes":"127","size_leaf_vector":"1"}},{"base_weights":[2.8766915E-2,-4.1634817E0,3.0103862E0,-6.0214257E0,1.453819E0,1.7470838E0,1.01959505E1,-1.1086562E1,-4.742576E0,-6.0430136E0,3.2210274E0,1.0055995E0,1.110879E1,8.159672E0,1.847763E1,-1.4601382E1,-9.034167E0,-5.3038154E0,6.7532825E0,-6.939332E0,1.0212506E1,2.439627E0,1.5762501E1,-4.2231874E0,2.2827485E0,8.100496E0,1.7453169E1,6.91653E0,1.4033797E1,1.50192585E1,2.4473555E1,-1.5427618E1,2.2125938E0,-7.2316756E0,-1.3699313E1,-8.918602E0,-3.9552312E0,-9.651967E-1,9.258904E0,-9.141334E0,-1.7372147E0,-8.7392576E-2,9.509799E-1,1.0150409E0,8.52988E0,7.764307E0,2.438109E1,-6.1248713E0,2.3590691E-1,1.3955156E0,9.31838E0,-6.268378E0,9.5341835E0,2.027262E1,4.034258E0,6.2079415E0,1.5170862E1,9.054295E0,1.7573757E1,1.2626465E1,2.5077456E1,2.1428253E1,2.2501476E0,-6.5526897E-1,-8.7247354E-1,-3.9008182E-1,5.9625125E-1,-3.91874E-1,3.410884E-1,-7.26677E-1,1.0058429E-2,-6.467627E-1,-3.7950683E-1,-2.803331E-1,-1.5490554E-1,-3.5036182E-1,5.0919884E-1,7.0577544E-1,2.3877612E-1,-2.8685054E-1,-6.1022896E-1,-4.9392793E-1,-2.238516E-3,-1.597862E-3,1.5679932E-1,3.0353314E-1,6.371215E-1,6.850084E-1,-1.1364156E-1,4.6517894E-1,1.4720519E0,-5.3061104E-1,-2.2661555E-1,4.6726924E-1,-7.932608E-2,-3.5888345E-3,1.4019014E-1,3.5127434E-1,7.594909E-1,3.5751E-1,-5.32823E-1,2.982108E-1,8.062318E-1,3.3660522E-1,1.1731244E0,-8.4543765E-2,9.096996E-1,8.161197E-2,3.4976652E-1,1.7223585E-1,1.3612132E0,7.0352834E-1,1.0712331E-1,9.916405E-1,5.4073626E-1,2.2386423E-1,8.4684056E-1,3.259269E-1,1.4932507E0,4.0370512E-1,1.2074142E0],"categories":[],"categories_nodes":[],"categories_segments":[],"categories_sizes":[],"default_left":[0,0,0,0,0,0,0,0,0,0,0,0,0,0,0,0,0,0,0,0,0,0,0,0,0,0,0,0,0,0,0,0,0,0,0,0,0,0,0,0,0,0,0,0,0,0,0,0,0,0,0,0,0,0,0,0,0,0,0,0,0,0,0,0,0,0,0,0,0,0,0,0,0,0,0,0,0,0,0,0,0,0,0,0,0,0,0,0,0,0,0,0,0,0,0,0,0,0,0,0,0,0,0,0,0,0,0,0,0,0,0,0,0,0,0,0,0,0,0,0,0],"id":13,"left_children":[1,3,5,7,9,11,13,15,17,19,21,23,25,27,29,31,33,35,37,39,41,43,45,47,49,51,53,55,57,59,61,63,65,67,69,71,73,75,77,79,81,-1,-1,83,85,87,89,91,93,95,97,99,101,103,105,107,109,111,113,115,117,119,-1,-1,-1,-1,-1,-1,-1,-1,-1,-1,-1,-1,-1,-1,-1,-1,-1,-1,-1,-1,-1,-1,-1,-1,-1,-1,-1,-1,-1,-1,-1,-1,-1,-1,-1,-1,-1,-1,-1,-1,-1,-1,-1,-1,-1,-1,-1,-1,-1,-1,-1,-1,-1,-1,-1,-1,-1,-1,-1],"loss_changes":[1.4050894E5,4.876914E4,5.9611363E4,2.26885E4,1.5413899E4,3.877704E4,1.6406828E4,4.965883E3,1.813332E4,3.3051084E3,9.181441E3,3.4594492E4,7.6812266E3,5.669715E3,3.6305469E3,3.6335625E3,3.6744297E3,1.3003648E4,2.543253E3,2.4000508E3,1.2990021E3,7.6860776E3,3.5988066E3,8.625979E3,2.5972387E4,5.8282207E3,4.872035E3,3.7288809E3,2.2531504E3,2.6879883E3,3.3427812E3,9.279844E2,1.3578597E3,2.8290078E3,1.4422793E3,3.7736953E3,2.7419316E3,2.2940476E3,2.0863281E3,1.4715732E3,8.804068E2,0E0,0E0,1.599261E3,1.6611729E3,1.8196526E3,1.7057959E3,5.045752E3,5.07902E3,7.641906E3,6.164625E3,1.6074742E3,5.9011855E3,4.5038164E3,1.9780071E3,2.1638457E3,7.111492E3,2.0138579E3,9.886992E2,3.5399844E3,1.8452783E3,2.0538691E3,0E0,0E0,0E0,0E0,0E0,0E0,0E0,0E0,0E0,0E0,0E0,0E0,0E0,0E0,0E0,0E0,0E0,0E0,0E0,0E0,0E0,0E0,0E0,0E0,0E0,0E0,0E0,0E0,0E0,0E0,0E0,0E0,0E0,0E0,0E0,0E0,0E0,0E0,0E0,0E0,0E0,0E0,0E0,0E0,0E0,0E0,0E0,0E0,0E0,0E0,0E0,0E0,0E0,0E0,0E0,0E0,0E0,0E0,0E0],"parents":[2147483647,0,0,1,1,2,2,3,3,4,4,5,5,6,6,7,7,8,8,9,9,10,10,11,11,12,12,13,13,14,14,15,15,16,16,17,17,18,18,19,19,20,20,21,21,22,22,23,23,24,24,25,25,26,26,27,27,28,28,29,29,30,30,31,31,32,32,33,33,34,34,35,35,36,36,37,37,38,38,39,39,40,40,43,43,44,44,45,45,46,46,47,47,48,48,49,49,50,50,51,51,52,52,53,53,54,54,55,55,56,56,57,57,58,58,59,59,60,60,61,61],"right_children":[2,4,6,8,10,12,14,16,18,20,22,24,26,28,30,32,34,36,38,40,42,44,46,48,50,52,54,56,58,60,62,64,66,68,70,72,74,76,78,80,82,-1,-1,84,86,88,90,92,94,96,98,100,102,104,106,108,110,112,114,116,118,120,-1,-1,-1,-1,-1,-1,-1,-1,-1,-1,-1,-1,-1,-1,-1,-1,-1,-1,-1,-1,-1,-1,-1,-1,-1,-1,-1,-1,-1,-1,-1,-1,-1,-1,-1,-1,-1,-1,-1,-1,-1,-1,-1,-1,-1,-1,-1,-1,-1,-1,-1,-1,-1,-1,-1,-1,-1,-1,-1],"split_conditions":[5.6398846E1,2.2116587E1,2.4219316E1,1.181105E1,4.736247E1,7E0,6.735087E1,8.374521E0,1.7E1,1.1E1,1.8E1,1.2262652E1,3E1,3.0025036E1,1.5E1,5E0,8.992698E-1,4.899021E1,4.7750877E1,2.6003283E1,8.3362E-1,2.7809624E1,5.2852814E1,6.451983E1,6.904005E1,5.5671805E-1,2.0237986E1,3E0,6.055586E1,2.4341426E0,7.7955894E1,1E0,5.376788E1,2.4E1,5.5545563E1,4.365252E1,1.5722294E1,1.2E1,1.0095673E0,7.964691E-1,4.3557423E1,-8.7392576E-2,9.509799E-1,1E0,5.3456093E1,8.5276306E-1,3E0,4.7417238E-1,6.720791E-1,6.120556E1,7.3257454E1,5.708266E1,6.421515E1,5.486519E1,8.399767E-1,1.010777E0,9E0,2.1810687E0,1E0,2E0,1.0459864E0,6.822594E1,2.2501476E0,-6.5526897E-1,-8.7247354E-1,-3.9008182E-1,5.9625125E-1,-3.91874E-1,3.410884E-1,-7.26677E-1,1.0058429E-2,-6.467627E-1,-3.7950683E-1,-2.803331E-1,-1.5490554E-1,-3.5036182E-1,5.0919884E-1,7.0577544E-1,2.3877612E-1,-2.8685054E-1,-6.1022896E-1,-4.9392793E-1,-2.238516E-3,-1.597862E-3,1.5679932E-1,3.0353314E-1,6.371215E-1,6.850084E-1,-1.1364156E-1,4.6517894E-1,1.4720519E0,